<?xml version="1.0"?>
<opencv_storage>
<opencv_ml_svm>
  <format>3</format>
  <svmType>C_SVC</svmType>
  <kernel>
    <type>LINEAR</type></kernel>
  <C>1.</C>
  <term_criteria><iterations>20000</iterations></term_criteria>
  <var_count>625</var_count>
  <class_count>6</class_count>
  <class_labels type_id="opencv-matrix">
    <rows>6</rows>
    <cols>1</cols>
    <dt>i</dt>
    <data>
      0 1 2 3 4 5</data></class_labels>
  <sv_total>15</sv_total>
  <support_vectors>
    <_>
      -6.30742361e-05 -3.69093395e-05 -3.69093395e-05 -2.50675621e-05
      5.32924314e-05 1.09733583e-06 1.09733583e-06 2.36004853e-05
      -2.56441376e-06 0. 0. -4.92353574e-05 -6.28090784e-05
      -4.92353574e-05 0. 0. 1.09510183e-04 9.30776587e-05 0.
      -6.39150130e-06 1.01679334e-05 1.01679334e-05 1.01679334e-05
      3.63328327e-05 1.01679334e-05 -2.50675621e-05 -3.69093395e-05
      -2.50675621e-05 -2.50675621e-05 -3.69093395e-05 6.41715742e-05
      8.66747214e-05 8.66747214e-05 2.25031490e-05 2.25031490e-05 0.
      -7.25431091e-05 -6.08964074e-05 -1.35553901e-05 1.16467027e-05
      1.16467027e-05 0. 0. 0. 1.65594356e-05 1.65594356e-05
      1.65594356e-05 1.65594356e-05 1.65594356e-05 1.65594356e-05
      -2.50675621e-05 -3.69093395e-05 -2.50675621e-05 2.61648984e-05
      6.41715742e-05 6.41715742e-05 1.46211678e-04 8.66747214e-05
      2.25031490e-05 -4.02533660e-05 -1.47950286e-05 7.02305988e-05
      5.76424900e-05 8.04053489e-05 5.92484794e-05 8.54711616e-05
      1.16467027e-05 1.65594356e-05 1.65594356e-05 1.65594356e-05
      1.65594356e-05 -8.51077675e-06 -8.51077675e-06 1.65594356e-05
      1.65594356e-05 3.80066776e-05 0. 3.80066776e-05 6.41715742e-05
      6.41715742e-05 1.23708538e-04 1.46211678e-04 6.05098248e-05
      -3.93858227e-06 7.80994087e-05 1.37199371e-04 2.44028779e-04
      2.38712877e-04 1.45878221e-04 9.43053965e-05 -4.86837507e-07
      -3.16441619e-05 1.21886005e-04 5.86856513e-05 -6.29531278e-05
      -8.51077675e-06 -8.51077675e-06 -8.51077675e-06 -8.51077675e-06
      1.65594356e-05 6.41715742e-05 3.80066776e-05 6.41715742e-05
      3.80066776e-05 1.23708538e-04 1.23708538e-04 7.36685761e-05
      2.92191799e-05 3.58395082e-05 2.94058991e-04 -4.56354519e-06
      2.37131790e-05 1.11593174e-04 1.30425964e-04 1.34079615e-04
      1.79615570e-04 1.66215632e-05 -1.28290034e-04 4.23734455e-05
      4.24330256e-06 4.22499797e-05 -6.29531278e-05 -8.51077675e-06
      -8.51077675e-06 -8.51077675e-06 2.61648984e-05 6.41715742e-05
      6.41715742e-05 3.80066776e-05 1.14643917e-04 3.72518953e-05
      -4.20469878e-05 -1.15306881e-04 5.07787081e-05 -4.78464935e-05
      3.96340183e-05 1.41777782e-05 -2.17810830e-05 -3.06508773e-05
      3.61304192e-05 1.05813153e-04 1.17340815e-05 -8.41357687e-05
      -3.75689488e-05 -3.76924145e-05 4.24330256e-06 -6.29531278e-05
      -6.29531278e-05 -8.51077675e-06 -8.51077675e-06 1.65594356e-05
      8.07310134e-05 6.41715742e-05 1.23708538e-04 7.95526648e-05
      7.00955252e-06 4.05439096e-06 -2.05266449e-04 -8.37260377e-05
      -3.33936587e-05 -1.92381878e-04 -2.60139408e-04 -1.46757287e-04
      -1.96831665e-04 -1.79394610e-05 7.71958366e-06 4.01693105e-05
      1.20926365e-04 1.37917286e-05 -4.92156505e-05 -7.56990921e-05
      4.24330256e-06 -6.29531278e-05 -8.51077675e-06 -8.51077675e-06
      1.65594356e-05 8.07310134e-05 1.23708538e-04 1.23708538e-04
      -7.22958612e-06 -7.97726971e-05 -1.64083278e-04 -2.74165446e-04
      -1.81987838e-04 -2.68843374e-04 -2.32073915e-04 -5.34857209e-05
      -4.70942214e-05 -1.00321347e-04 -1.00490804e-04 1.23028804e-05
      8.88131399e-05 7.92809296e-05 8.04491501e-05 -3.75689488e-05
      -7.56990921e-05 4.24330256e-06 -6.29531278e-05 -2.50702124e-05
      1.65594356e-05 -6.19248385e-06 1.40267963e-04 1.40267963e-04
      3.69262889e-05 -4.77583999e-05 -1.05097250e-04 -9.36789511e-05
      -1.61165808e-04 -2.30756588e-04 -1.86778809e-04 2.08865040e-05
      -1.55969665e-05 -1.74857181e-04 -4.83998301e-05 -2.83174759e-05
      1.37354027e-05 5.44431896e-05 1.72342450e-04 1.69507141e-04
      -3.75689488e-05 3.07267401e-05 4.24330256e-06 4.21262157e-05 0.
      1.65594356e-05 3.79617886e-05 1.40267963e-04 1.40267963e-04
      3.69262889e-05 -8.34445236e-05 -1.56827242e-04 -6.84996412e-05
      2.22518756e-05 8.38344058e-05 1.18842154e-05 -1.44958234e-04
      -1.30327116e-05 3.55787924e-05 -8.03567455e-05 5.43856186e-05
      8.14832820e-05 2.42578735e-05 1.21409845e-04 1.56130161e-04
      -3.35492878e-05 3.07267401e-05 -1.23161326e-05 6.71964299e-05 0.
      1.65594356e-05 4.77483809e-05 1.40267963e-04 1.40267963e-04
      6.41715742e-05 -1.49856482e-04 -1.06487678e-04 -2.29744146e-05
      -2.24720043e-05 8.81260421e-05 -2.88420015e-05 -6.86255225e-05
      1.16147115e-04 -3.05347858e-05 -1.33583875e-04 -4.93388361e-05
      -9.02778120e-05 2.08869960e-06 9.04394765e-05 2.10839076e-04
      2.14502597e-06 1.41673072e-05 4.21262157e-05 6.71964299e-05 0.
      1.65594356e-05 -8.02591512e-06 9.10326125e-05 4.27243322e-05 0.
      -6.30742361e-05 1.06887586e-04 1.42872042e-04 1.26405124e-04
      2.39070214e-04 1.07213011e-04 3.36870035e-05 1.16147115e-04
      -7.89644946e-06 -8.37619082e-05 -1.21881945e-04 4.85570818e-05
      2.08869960e-06 1.06872001e-04 1.81327327e-04 1.04590566e-04
      6.86096537e-05 6.71964299e-05 6.71964299e-05 0. 1.65594356e-05
      -2.67923269e-06 -6.51102482e-06 1.65594356e-05 0. 0.
      1.69961830e-04 2.05946286e-04 2.48065946e-04 3.27214657e-04
      1.07213011e-04 2.16642748e-05 1.27793814e-04 1.34185320e-04
      -8.37619082e-05 1.83722041e-05 -1.09798784e-05 2.08869960e-06
      1.06872001e-04 9.58506935e-05 -3.67103821e-05 2.30092664e-05
      8.96995771e-05 6.71964299e-05 0. 1.65594356e-05 -2.91626729e-05
      1.65594356e-05 0. 0. 0. 1.55496600e-04 2.22505711e-04
      2.41674454e-04 2.96972314e-04 1.07213011e-04 -3.75059462e-05
      1.16147115e-04 -7.89644946e-06 -7.46972946e-05 -5.88077055e-05
      6.88516775e-06 2.08869960e-06 1.43022029e-04 1.58545139e-04
      4.28021776e-05 5.06117203e-07 -3.47417358e-06 0. 0. 1.65594356e-05
      -3.25577639e-05 1.65594356e-05 0. 0. 0. 1.55496600e-04
      2.05946286e-04 2.65627255e-04 2.42529975e-04 5.11003927e-05
      -2.00527047e-05 1.22538622e-04 -7.89644946e-06 -8.44838869e-05
      -1.43981160e-05 8.45071263e-05 3.99147666e-06 4.99289672e-05
      2.06146040e-04 5.44488794e-05 5.06117203e-07 -2.59773224e-05 0. 0.
      1.65594356e-05 2.87003222e-05 1.65594356e-05 0. 0. 0.
      1.41989425e-04 2.67647061e-04 2.88197451e-04 1.55818052e-04
      -2.80528438e-05 -1.86201833e-05 3.70879970e-05 -6.11235737e-05
      -1.92881635e-04 1.48483654e-04 2.46145955e-05 1.70804691e-04
      5.58805841e-05 2.04849610e-04 2.96110120e-05 -3.50419396e-05
      -9.31737522e-05 -8.67822455e-05 0. 1.65594356e-05 1.65594356e-05
      1.65594356e-05 0. 0. 0. 2.25031490e-05 1.91128827e-04
      2.91254168e-04 1.66307378e-04 -1.01552960e-05 -4.16708353e-05
      -2.13112817e-05 -8.02215582e-05 7.19708842e-05 6.84639963e-05
      -9.42686311e-05 1.17941796e-04 2.43615039e-04 2.18292029e-04
      4.10948778e-05 -3.50419396e-05 -7.06705978e-05 -7.06705978e-05
      1.65594356e-05 1.65594356e-05 1.65594356e-05 0. 0. 0. 0.
      2.25031490e-05 6.02035761e-05 1.87962331e-04 6.55463446e-05
      4.26379047e-05 -3.57190693e-05 1.11682173e-04 -3.03995985e-05
      7.19708842e-05 -1.61223885e-04 2.19970854e-04 1.31758177e-04
      2.39594970e-04 1.66510712e-04 2.96473604e-06 -1.02238366e-04
      -1.02238366e-04 -9.31737522e-05 1.65594356e-05 1.65594356e-05
      1.65594356e-05 0. 0. 0. 0. 2.25031490e-05 5.64829934e-05
      5.30296711e-05 1.03529972e-04 1.28958891e-06 -9.69375978e-05
      -4.53511639e-05 -1.90088875e-04 -1.48920750e-04 8.05055024e-05
      -2.20081129e-05 3.20479186e-04 -5.47245400e-05 1.78157410e-04
      -6.42316882e-05 -1.02238366e-04 -1.02238366e-04 -9.31737522e-05
      -8.67822455e-05 0. 0. 0. 0. 0. 0. -2.56706335e-06 -1.33623718e-04
      -6.30274144e-07 4.69030274e-05 4.06031722e-05 5.33794673e-06
      1.70495605e-05 -5.35074178e-05 -7.10267996e-05 -5.92720498e-05
      3.08548042e-04 1.17913922e-04 -5.91648350e-05 2.14701668e-05
      -6.42316882e-05 -1.02238366e-04 -1.02238366e-04 -9.31737522e-05
      -8.67822455e-05 0. 0. 0. 0. 0. 0. -5.70094126e-05 -1.33623718e-04
      -6.80143203e-05 -4.43872850e-05 -6.41539445e-05 7.25188365e-05
      2.25735668e-04 1.24672770e-05 5.29083118e-05 1.94401422e-04
      1.95808752e-04 2.40837153e-06 -5.46185038e-05 2.14701668e-05
      -6.42316882e-05 -1.02238366e-04 -1.02238366e-04 -1.02238366e-04
      -9.31737522e-05 -7.02228135e-05 0. 0. 0. 0. 0. -2.56706335e-06
      -1.33623718e-04 -1.33623718e-04 -1.17764685e-04 -5.60747067e-05
      -3.22615633e-05 1.04396473e-04 1.65600854e-04 3.50623623e-06
      -1.51751383e-05 -1.18897449e-04 1.16695854e-04 1.08252418e-04
      2.14701668e-05 -6.42316882e-05 -1.02238366e-04 -9.58468663e-05
      -8.56789338e-05 -7.66143130e-05 -7.02228135e-05 0. 0. 0. 0. 0.
      8.20401110e-05 3.90625828e-05 -5.41111658e-05 -5.41111658e-05
      -7.41613985e-05 1.41381242e-04 8.82823006e-05 1.14447204e-04
      2.28968584e-05 1.38455225e-05 1.28537635e-04 8.57018604e-05
      1.23708538e-04 3.05347858e-05 -5.51670710e-05 -7.02228135e-05
      -7.02228135e-05 -7.66143130e-05 -7.66143130e-05 -7.66143130e-05
      -3.20133840e-05 -3.20133840e-05 0. 0. 5.95369602e-05
      9.85995430e-05 3.90625828e-05 3.90625828e-05 -4.77196627e-05
      -7.61085030e-05 5.62409950e-05 1.22075626e-05 -4.44978104e-06
      5.97217950e-05 7.17445218e-05 3.80066776e-05 8.57018604e-05
      1.23708538e-04 1.23708538e-04 -3.22161359e-05 -7.02228135e-05
      -7.02228135e-05 -7.66143130e-05 -5.87492686e-05 1.50308215e-05
      -3.20133840e-05 -3.20133840e-05 -3.20133840e-05 2.75235761e-05
      1.34749571e-04 3.80066776e-05 2.25031490e-05 2.25031490e-05
      3.90625828e-05 6.52274830e-05 5.22213340e-05 9.42476690e-05
      3.47107125e-05 5.62409950e-05 9.02280080e-05 6.05098248e-05
      1.08205008e-04 1.23708538e-04 1.40267963e-04 5.45661132e-05
      6.87545325e-05 3.44244800e-05 1.39581462e-04 1.76727699e-04
      1.47328465e-05</_>
    <_>
      -3.55641023e-05 -1.98285420e-06 -1.98285420e-06 1.69594350e-05
      5.26081858e-05 3.43829161e-05 3.43829161e-05 3.48835129e-05
      1.74600355e-05 -1.94081494e-07 0. 0. 0. -5.96986101e-05
      -5.96986101e-05 -7.91049461e-05 5.72120989e-05 4.91176688e-05
      -7.56277404e-06 -7.56277404e-06 2.13599633e-05 2.13599633e-05
      2.13599633e-05 4.63462165e-05 2.89227373e-05 -2.44689977e-06
      -1.98285420e-06 -2.44689977e-06 1.69594350e-05 1.74234792e-05
      3.43829161e-05 3.48835129e-05 3.48835129e-05 5.00600095e-07
      -1.56571678e-05 -1.22509409e-05 -1.22509409e-05 -5.15744905e-05
      -2.05306824e-05 -3.93235496e-05 -3.93235496e-05 -6.72613824e-05
      -7.56277404e-06 -7.56277404e-06 2.13599633e-05 2.13599633e-05
      2.13599633e-05 2.13599633e-05 2.89227373e-05 2.89227373e-05
      -2.44689977e-06 -1.98285420e-06 1.69594350e-05 1.74234792e-05
      3.43829161e-05 3.43829161e-05 1.41146855e-04 3.48835129e-05
      -4.63029501e-05 -4.30010514e-05 5.70129669e-05 9.72566777e-05
      3.80586716e-05 -5.93286040e-06 -7.53286986e-06 -4.08558481e-05
      -7.94624284e-05 -7.09147571e-05 -1.12161451e-05 2.13599633e-05
      2.13599633e-05 2.13599633e-05 2.13599633e-05 2.89227373e-05
      2.89227373e-05 -2.44689977e-06 0. 1.69594350e-05 3.43829161e-05
      3.43829161e-05 1.40646254e-04 1.41146855e-04 -2.93435132e-05
      -5.68666183e-05 -6.62871753e-05 -2.53371345e-05 2.41468551e-05
      5.77763531e-05 2.69872671e-05 8.78612555e-05 -7.22635150e-06
      1.38270934e-05 -4.29769207e-05 -3.65337155e-06 -3.65337155e-06
      -3.65337155e-06 2.89227373e-05 2.89227373e-05 2.89227373e-05
      2.89227373e-05 1.49765801e-05 1.69594350e-05 3.43829161e-05
      1.69594350e-05 1.40646254e-04 1.40646254e-04 9.43433042e-05
      -6.12938093e-05 -4.80619055e-05 3.98861230e-05 -4.12629415e-05
      -5.52663732e-05 -5.69306649e-05 -7.12042020e-05 1.23705904e-05
      4.34937501e-05 8.48880736e-05 -9.65394065e-06 1.67216895e-05
      -3.65337155e-06 1.33060630e-05 2.89227373e-05 2.89227373e-05
      2.89227373e-05 2.89227373e-05 1.74234792e-05 3.43829161e-05
      3.43829161e-05 1.69594350e-05 1.40646254e-04 9.38427038e-05
      -1.19200340e-05 -5.31072328e-05 4.68068574e-05 -7.46565347e-05
      5.87418399e-05 -6.51240043e-05 -1.56520968e-04 -1.31226727e-04
      -7.94503940e-05 4.65515859e-06 1.36399918e-04 4.03679951e-05
      1.67216895e-05 1.33060630e-05 -3.65337155e-06 2.89227373e-05
      2.89227373e-05 2.89227373e-05 2.89227373e-05 2.89227373e-05
      6.33056552e-05 3.43829161e-05 1.40646254e-04 9.38427038e-05
      9.38427038e-05 1.96725414e-05 -6.09186088e-07 4.35846014e-05
      4.07162843e-05 -9.01559470e-05 -1.82644464e-04 -1.39046620e-04
      -1.64926387e-04 -1.09802662e-04 -6.71206872e-05 -2.58091904e-06
      1.25962237e-04 5.00446695e-05 -3.65337155e-06 -3.65337155e-06
      2.89227373e-05 2.89227373e-05 2.89227373e-05 2.89227373e-05
      2.89227373e-05 6.33056552e-05 1.40646254e-04 1.33273541e-04
      9.38427038e-05 9.38427038e-05 2.73950700e-05 6.79399964e-05
      6.06691065e-05 1.71368029e-05 4.22551311e-05 1.09532382e-04
      7.69562757e-05 -2.15277068e-05 -1.79137627e-04 -5.44615614e-05
      -9.08027068e-05 1.17270847e-05 4.43053832e-05 9.34897889e-06
      -3.65337155e-06 2.89227373e-05 2.89227373e-05 0. 2.89227373e-05
      -3.65337155e-06 1.69568986e-04 1.62196273e-04 1.33273541e-04
      1.40646254e-04 3.48835129e-05 1.17109943e-04 1.73444816e-04
      1.24733429e-04 1.37056792e-04 1.98073016e-04 5.04865493e-05
      -5.44185568e-05 5.53778591e-05 -7.37608207e-05 -8.76276681e-06
      -3.89406450e-05 4.35533402e-05 5.38313798e-05 1.67216895e-05
      -3.65337155e-06 2.89227373e-05 0. 0. 2.89227373e-05 1.53247565e-05
      1.69568986e-04 1.62196273e-04 1.33273541e-04 2.70102046e-05
      4.95166569e-05 1.22014055e-04 1.60485739e-04 1.45944054e-04
      1.25083679e-04 1.83264216e-04 4.70673440e-05 1.15335046e-04
      5.05356147e-05 2.43844352e-05 -2.07282992e-05 -9.67366941e-05
      -3.68904898e-06 8.71543598e-05 5.00446695e-05 -3.65337155e-06 0.
      0. 0. 2.89227373e-05 7.26318467e-06 1.29620166e-04 1.62196273e-04
      2.70102046e-05 -7.37271057e-06 4.98178488e-05 1.13919632e-04
      1.63325734e-04 2.01423580e-04 1.37580093e-04 1.89786108e-04
      2.15724009e-04 1.08455264e-04 -2.72599718e-05 -3.05822068e-05
      -6.72465540e-05 -6.97177747e-05 -5.37109845e-05 9.52487899e-05
      6.07134170e-05 0. 0. 0. 0. 2.89227373e-05 -3.85595922e-05
      1.29620166e-04 -6.84926863e-06 -5.31954865e-05 -5.31954865e-05
      2.40756235e-05 9.91406632e-05 7.96341919e-05 1.72886081e-04
      1.73443768e-04 2.25908545e-04 1.00331141e-04 8.71197044e-05
      5.80568885e-05 -1.97000944e-07 2.53269241e-06 -6.77885546e-05
      -4.54224755e-05 9.11737952e-05 6.12140138e-05 0. 0. 0. 0.
      2.89227373e-05 -1.40471275e-05 1.37701081e-05 2.89227373e-05
      -4.58227769e-05 -4.58227769e-05 2.40756235e-05 9.91406632e-05
      9.78594690e-05 1.72886081e-04 1.57286006e-04 1.50528067e-04
      1.35852475e-04 7.62821655e-05 5.78668260e-05 2.80958125e-06
      -6.43776730e-05 -3.65639062e-05 -4.54224755e-05 1.16044277e-04
      8.33449158e-05 5.00600095e-07 5.00600095e-07 0. 0. 2.89227373e-05
      -1.40471275e-05 -3.65337155e-06 0. 0. 0. 5.72391837e-05
      1.73886176e-04 9.78594690e-05 1.56728303e-04 1.27728301e-04
      6.52832823e-05 5.59071013e-05 7.60920957e-05 -2.88388874e-05
      5.71594428e-05 -3.81380014e-05 9.25886980e-06 5.45865805e-05
      1.68494851e-04 6.43667881e-05 0. 5.00600095e-07 0. 0.
      2.89227373e-05 -1.53714209e-05 -1.78808114e-05 -4.68035469e-05
      -4.68035469e-05 0. 5.72391837e-05 1.13919632e-04 1.65295802e-04
      1.46180784e-04 6.50199727e-05 6.96800344e-05 6.82792734e-06
      -2.67713822e-05 -2.64819864e-05 -9.90445733e-06 7.13757909e-05
      1.74026398e-04 1.51254120e-04 1.49388536e-04 8.47418487e-05 0. 0.
      0. 0. 2.89227373e-05 -5.87942259e-06 2.15500277e-05
      -5.41762602e-05 -4.68035469e-05 -4.68035469e-05 2.10180751e-05
      1.73790380e-04 1.95963279e-04 9.56053700e-05 8.66548908e-06
      2.80396544e-05 -9.71743866e-05 4.24174505e-05 -2.16461467e-05
      2.16257846e-04 1.02533428e-04 2.51320627e-04 2.73544021e-04
      1.46816645e-04 5.41986410e-05 0. 0. 0. 0. 2.89227373e-05
      1.53247565e-05 2.15500277e-05 -5.41762602e-05 -5.41762602e-05
      -5.41762602e-05 -6.87211013e-06 1.19253637e-04 2.02861236e-04
      8.86846319e-05 -3.12075936e-05 -9.18726291e-05 -6.46042317e-05
      8.12648577e-05 1.65308491e-04 1.52298773e-04 7.27496683e-07
      1.65678081e-04 2.58388405e-04 1.62154131e-04 3.73344956e-05 0.
      5.00600095e-07 5.00600095e-07 2.89227373e-05 2.89227373e-05
      2.89227373e-05 -7.37271057e-06 -5.41762602e-05 -5.41762602e-05
      -5.41762602e-05 -2.62784451e-05 5.93828772e-05 9.62645718e-05
      2.98061568e-05 -8.25401512e-05 -1.51488304e-04 -2.23937514e-05
      -3.56880300e-05 8.79987856e-05 -6.84833358e-05 5.94118828e-05
      1.10803696e-04 2.11552629e-04 1.44305610e-04 1.69594350e-05 0. 0.
      0. 2.89227373e-05 2.89227373e-05 2.89227373e-05 -7.37271057e-06
      -5.41762602e-05 -5.41762602e-05 -5.41762602e-05 -2.62784451e-05
      5.24621428e-05 5.21530694e-07 8.30543795e-05 -6.95683484e-05
      -1.13240341e-04 -1.72893429e-04 -1.39484968e-04 -1.77530688e-04
      -2.51017973e-05 -1.39796131e-04 1.93095548e-04 3.33764001e-05
      1.62751458e-04 1.69594350e-05 0. 0. 0. 0. 0. 0. 0. -5.41762602e-05
      -5.41762602e-05 -7.35825961e-05 -2.62784451e-05 1.00170028e-05
      -7.21677643e-05 6.09787858e-05 -1.28297625e-05 -5.83704932e-05
      -2.59201661e-05 -5.67247553e-05 -1.38868505e-04 -1.36867689e-04
      1.16108808e-04 -5.83106339e-06 -2.20561060e-06 7.80096016e-05
      5.14112071e-06 0. 0. 0. 0. 0. -7.37271057e-06 0. -4.68035469e-05
      -4.68035469e-05 -6.62098828e-05 -2.62784451e-05 2.64429264e-06
      -2.03508098e-05 -6.91816313e-05 6.43743033e-06 4.45326623e-06
      5.31035548e-05 3.02241551e-05 6.87605934e-05 1.39763739e-04
      4.70125378e-05 -8.85377119e-07 1.15166782e-04 1.26898711e-04
      1.69594350e-05 0. 0. 0. 0. 2.89227373e-05 -5.41762602e-05
      -7.37271057e-06 -5.41762602e-05 -7.35825961e-05 -8.23676528e-05
      -3.50635019e-05 -6.14076407e-06 1.32655696e-05 -5.49167817e-05
      -4.45497390e-05 8.95421908e-06 9.36922734e-05 7.61966221e-05
      2.71929257e-05 8.56256956e-05 -7.68977552e-05 1.57707655e-05
      -4.44488724e-05 8.09476405e-05 1.69594350e-05 0. -1.94063341e-05
      9.51640322e-06 9.51640322e-06 9.51640322e-06 -4.29368120e-05
      -2.67790456e-05 -8.97403588e-05 -8.97403588e-05 -8.23676528e-05
      7.11998364e-05 -1.35134751e-05 -4.60895826e-05 -1.05725630e-04
      -7.43231139e-05 5.17335902e-05 1.14453978e-05 6.40047729e-05
      -4.22585617e-05 -1.11219240e-04 1.20706691e-05 -3.47977839e-05
      -3.10850191e-05 1.57185314e-05 -2.44689977e-06 9.51640322e-06
      9.51640322e-06 9.51640322e-06 9.51640322e-06 9.51640322e-06
      -4.29368120e-05 -4.29368120e-05 -9.18259248e-05 -1.38629475e-04
      2.18101231e-05 5.12334627e-05 -1.35134751e-05 -1.35134751e-05
      -5.83405235e-05 -5.83405235e-05 2.13731855e-05 -1.74933477e-04
      -1.91806557e-05 -3.21828447e-05 -6.32266529e-05 -1.50955748e-04
      1.20057630e-05 1.57185314e-05 1.57185314e-05 -3.55047050e-05
      -5.24641400e-05 -3.63063737e-05 -3.63063737e-05 1.44205178e-05
      2.35643856e-05 -1.65859728e-05 -1.65859728e-05 -7.28477971e-05
      3.34155411e-05 7.35864523e-05 -1.86046673e-05 -4.24362115e-05
      -4.24362115e-05 -2.71114550e-05 -9.68797485e-06 9.65753643e-05
      3.63408326e-05 -1.16726056e-04 -7.48072562e-05 -9.23308926e-06
      -1.00702593e-04 1.96227702e-05 -2.36846040e-06 8.62528832e-05
      -3.55047050e-05 -3.42388666e-05 -4.75600245e-05 4.21630421e-06
      5.91829485e-05 7.40661835e-06</_>
    <_>
      -4.35163165e-05 -4.35163165e-05 -4.35163165e-05 1.63030727e-05
      1.63030727e-05 2.30204660e-05 2.30204660e-05 6.27205372e-05
      5.94693411e-05 -4.00501194e-05 -6.68025314e-05 -6.35513352e-05
      -6.35513352e-05 -3.67989269e-05 -1.52049615e-05 -3.67989269e-05
      -2.66167481e-05 -2.66167481e-05 -3.67989269e-05 -3.67989269e-05
      -3.00932279e-05 -3.00932279e-05 -3.00932279e-05 -3.00932279e-05
      -9.78543903e-05 2.30204660e-05 -3.67989269e-05 1.63030727e-05
      1.63030727e-05 -3.67989269e-05 2.30204660e-05 6.27205372e-05
      5.94693411e-05 -3.50049021e-07 -7.09277956e-05 -7.38289455e-05
      -7.38289455e-05 -4.29833381e-05 -2.57046104e-05 -8.52294615e-05
      -5.84770496e-05 -3.67989269e-05 0. 0. 6.70569761e-06
      -3.00932279e-05 -3.00932279e-05 -3.00932279e-05 -3.00932279e-05
      -3.00932279e-05 5.98193910e-05 0. 5.98193910e-05 0. 5.98193910e-05
      5.98193910e-05 1.51649787e-04 5.56941268e-05 -7.37646042e-06
      -2.92773275e-05 9.01808198e-06 4.32091219e-05 6.13152297e-05
      7.65491422e-05 -2.77947984e-05 -4.61231430e-05 1.11243126e-05
      3.01242289e-05 3.01242289e-05 6.70569761e-06 6.70569761e-06
      6.70569761e-06 6.70569761e-06 6.70569761e-06 -3.00932279e-05
      5.98193910e-05 0. 5.98193910e-05 5.98193910e-05 5.98193910e-05
      1.11949710e-04 1.07824446e-04 5.56941268e-05 -2.46518266e-05
      -8.09217527e-05 -5.63471149e-05 -6.24058230e-05 2.21834707e-05
      1.10322471e-04 9.60028483e-05 3.60952763e-05 -8.46531566e-06
      -6.67831409e-05 5.30619109e-05 3.01242289e-05 6.70569761e-06
      6.70569761e-06 6.70569761e-06 6.70569761e-06 6.70569761e-06
      3.30669791e-05 3.30669791e-05 2.98157847e-05 2.98157847e-05
      8.19461056e-05 8.19461056e-05 1.00596790e-05 -1.38383926e-04
      -1.12502115e-04 -4.30500295e-05 -7.11656976e-05 2.44933217e-05
      4.74159024e-05 -1.85215649e-05 -2.88131996e-05 2.16065837e-05
      -4.81621282e-05 -3.24681423e-05 -1.49433599e-05 5.30619109e-05
      8.94627665e-05 6.70569761e-06 6.70569761e-06 6.70569761e-06
      6.70569761e-06 -2.67524119e-05 2.98157847e-05 2.98157847e-05
      2.98157847e-05 8.19461056e-05 8.19461056e-05 -1.10682857e-04
      -1.37064897e-04 -2.76611554e-05 -1.97880399e-05 3.91404174e-05
      -6.94092751e-06 -3.50020164e-05 3.41655550e-06 -2.86967970e-05
      1.14086589e-07 2.83122827e-05 -9.74537761e-05 -1.49433599e-05
      1.42613979e-04 5.30619109e-05 6.70569761e-06 6.70569761e-06
      6.70569761e-06 6.70569761e-06 -2.00467130e-05 3.65214837e-05
      2.98157847e-05 8.19461056e-05 8.19461056e-05 8.19461056e-05
      2.44788007e-05 -1.22538486e-05 5.31545311e-06 4.36306582e-05
      -1.65097135e-05 1.29329874e-05 9.88541215e-05 -2.65512444e-05
      -2.00289287e-05 -6.40098515e-05 -2.13440453e-05 -1.58421353e-05
      -7.46142250e-05 -1.09428511e-05 5.30619109e-05 2.96433791e-05
      6.70569761e-06 6.70569761e-06 6.70569761e-06 -2.00467130e-05
      3.97726762e-05 8.51973018e-05 8.51973018e-05 8.19461056e-05
      8.19461056e-05 1.20123668e-05 8.88008890e-06 1.46332804e-05
      1.05297957e-04 3.77031247e-05 1.58229013e-04 1.23017046e-04
      7.70952465e-05 -2.90220614e-05 -4.79160844e-05 -8.56329352e-05
      -1.16489582e-06 -4.40885633e-05 -1.40958937e-05 7.13077316e-05
      1.62629858e-05 -3.00932279e-05 0. -1.27246312e-05 -4.45672486e-05
      1.18655407e-04 1.18655407e-04 1.11949710e-04 5.55004153e-05
      2.19288049e-05 7.25583959e-06 1.43882044e-05 -1.34852708e-05
      1.24647690e-04 1.04866835e-04 6.13888842e-05 -4.53154025e-05
      4.45026089e-05 -9.20834354e-05 -5.10829086e-05 -5.14413041e-05
      5.24763209e-06 -1.19368615e-05 4.15252616e-05 1.78189600e-06
      1.62629858e-05 -1.38612440e-05 -3.67989269e-05 -1.27246312e-05
      1.09359087e-06 1.18655407e-04 1.18655407e-04 1.11949710e-04
      -1.77712664e-05 -1.90814699e-05 6.42565356e-05 6.51397495e-05
      1.20391531e-04 6.63949249e-05 8.13225051e-05 6.71227899e-05
      1.16624287e-04 -6.50005168e-05 -6.24710665e-05 -1.16041927e-04
      -6.34771568e-05 -1.13013593e-04 4.23257261e-05 2.03839027e-05
      8.32904479e-05 9.55728683e-06 -1.38612440e-05 -3.67989269e-05
      -4.95235581e-05 2.68617532e-05 1.18655407e-04 1.18655407e-04
      5.98193910e-05 0. 4.10552930e-05 6.42565356e-05 -3.23290919e-07
      7.73195788e-05 -2.12900386e-06 2.66497118e-05 2.68428230e-05
      4.89900376e-05 -1.17923366e-04 -8.19572087e-05 -1.07987435e-04
      -7.54421926e-05 5.56846271e-06 3.22860433e-05 -1.68920087e-05
      5.54433900e-05 9.55728683e-06 -1.38612440e-05 -3.67989269e-05
      -4.95235581e-05 4.97994370e-05 1.18655407e-04 6.70569761e-06
      -2.67524119e-05 -2.67524119e-05 8.15289750e-05 1.25871113e-04
      8.33053782e-05 9.89961336e-05 1.62206998e-05 7.76180168e-05
      6.18012127e-05 2.43986960e-06 -1.69132420e-06 -6.18019330e-05
      -2.35812768e-05 -6.24614549e-05 2.54188599e-05 3.50312839e-05
      2.28080626e-05 -1.00590546e-06 -1.15840730e-05 -1.38612440e-05
      -3.67989269e-05 -4.95235581e-05 1.69648574e-05 6.70569761e-06
      6.70569761e-06 -2.67524119e-05 -2.67524119e-05 8.15289750e-05
      1.35255017e-04 2.03589501e-04 -5.71436294e-06 -8.18949266e-05
      -5.70849807e-05 -3.43590546e-05 -3.43590546e-05 -3.84902487e-05
      -4.21515615e-05 -6.38355341e-05 -1.21297868e-04 -7.34546993e-05
      -2.92534005e-05 2.69818484e-05 3.86941647e-05 -2.83332975e-05
      -3.50026057e-05 0. -1.27246312e-05 -3.70963244e-06 6.70569761e-06
      0. -2.67524119e-05 -2.67524119e-05 8.15289750e-05 1.35828013e-04
      1.44312318e-04 1.43518526e-04 3.03288307e-05 9.21479077e-05
      9.27266228e-05 7.10484965e-05 6.01999127e-05 -3.57731515e-05
      -3.84902487e-05 -1.63088480e-04 -1.57879462e-04 -8.91912496e-05
      -6.93425754e-05 -1.00590546e-06 -2.83332975e-05 -5.79402840e-05 0.
      -1.27246312e-05 1.07048336e-05 6.70569761e-06 0. 0. 0.
      1.08281391e-04 1.41847195e-04 1.71404696e-04 1.79385926e-04
      4.40465774e-05 4.55660083e-05 2.47418484e-05 7.44665158e-05
      3.74712067e-06 -9.47691369e-05 -7.22560362e-05 -2.53452836e-05
      -1.09139401e-04 -1.55786183e-04 -4.71953608e-05 -1.00590546e-06
      -6.80333687e-05 -3.67989269e-05 -3.67989269e-05 -4.95235581e-05
      -9.42331826e-05 6.70569761e-06 0. 0. 0. 5.43349888e-05
      1.41847195e-04 2.35228668e-04 2.56864703e-04 8.40282373e-05
      1.66510974e-04 1.73719149e-04 1.53017711e-04 4.74593508e-05
      5.33157800e-05 -4.58856230e-05 2.32418952e-05 -4.22723460e-05
      -1.50143256e-04 -1.20229291e-04 -4.15518880e-05 -4.00501194e-05
      -3.67989269e-05 -3.67989269e-05 -4.95235581e-05 -9.42331826e-05
      6.70569761e-06 0. 0. 0. -2.80610911e-05 1.16401185e-04
      2.80502660e-04 3.07229406e-04 2.91336066e-04 1.53482295e-04
      1.45694794e-04 1.53039160e-04 8.71933589e-05 7.14241787e-06
      -1.15014693e-04 -7.58880051e-05 -6.95136914e-05 -8.97844366e-05
      -1.81618525e-04 -6.83042963e-05 -4.82438190e-05 -3.50049021e-07
      -3.00932279e-05 -3.00932279e-05 -1.27246312e-05 -2.67524119e-05
      -2.67524119e-05 -3.09290008e-05 -9.86901578e-05 -1.09532819e-04
      -6.96306306e-05 1.06765074e-04 1.50002932e-04 1.82050222e-04
      1.63840217e-04 2.04610289e-04 1.60784955e-04 1.24689337e-04
      6.91136229e-05 7.83959913e-05 -7.20761382e-05 -1.05880456e-04
      -1.48730571e-04 -1.53249130e-04 -1.62987868e-04 -1.44393183e-04
      -1.44393183e-04 -5.44857830e-05 -3.00932279e-05 6.70569761e-06
      -2.67524119e-05 -2.67524119e-05 -5.76814091e-05 -1.69267907e-04
      -1.36285234e-04 -1.53994028e-04 -9.41757826e-05 1.18797114e-04
      8.51361983e-05 9.07137073e-05 9.30552342e-05 1.67208214e-04
      8.78100982e-05 3.09343050e-05 -1.18403586e-04 -5.07817167e-05
      -8.67363851e-05 -1.17623887e-04 -1.32361471e-04 -1.44393183e-04
      -1.44393183e-04 -1.44393183e-04 -1.17640775e-04 -4.00501194e-05 0.
      -2.67524119e-05 -2.67524119e-05 -5.76814091e-05 -1.01506746e-04
      -1.36285234e-04 -2.11420265e-04 -1.41424840e-04 -5.92473261e-05
      5.48613643e-05 6.17227633e-05 2.48721808e-05 5.46390265e-06
      -1.06581218e-04 -6.26906840e-05 3.11848889e-05 -4.32980551e-06
      -3.22691449e-05 -9.67156957e-05 -2.04107360e-04 -1.44393183e-04
      -1.44393183e-04 -1.07594264e-04 -8.08418481e-05 -3.25119504e-06 0.
      0. 0. -5.76814091e-05 -5.76814091e-05 -1.43315236e-04
      -1.78400136e-04 -1.50891196e-04 -1.28800151e-04 -1.57521717e-04
      -1.34246206e-04 -1.92477019e-05 4.05716892e-05 1.98506823e-05
      7.87173558e-05 5.91123826e-05 -2.86298055e-05 -4.02251089e-06
      -1.15178103e-04 -6.72052047e-05 -1.07594264e-04 -1.07594264e-04
      -8.08418481e-05 -2.43925551e-05 3.45450280e-06 0. 0. 0. 0. 0.
      -8.56338156e-05 -1.02130063e-04 -1.69454157e-04 -2.05021337e-04
      -1.61790114e-04 -3.96448850e-05 -1.81778742e-05 -2.51899746e-06
      -2.41556199e-06 6.20421852e-05 -1.50759815e-05 -2.67222622e-05
      -5.75673330e-05 -1.50748792e-05 -4.77748727e-05 -8.08418481e-05
      -8.08418481e-05 -1.76868580e-05 3.45450280e-06 3.45450280e-06 0.
      0. 0. 0. 0. 1.03218399e-05 -3.51027848e-05 -7.56744703e-05
      -1.17471085e-04 -1.31203327e-04 -2.64787377e-05 2.13761268e-05
      4.38100687e-05 4.10703542e-05 -3.17282866e-05 2.26715874e-05
      -3.61919228e-05 6.81268284e-05 6.81268284e-05 3.54268341e-05
      -1.76868580e-05 1.21528956e-05 1.21528956e-05 3.45450280e-06
      3.45450280e-06 -1.85886656e-05 -1.85886656e-05 0. 0.
      4.54129295e-05 9.18186997e-05 -3.51027848e-05 -5.45331131e-05
      2.69754401e-05 2.69754401e-05 -2.40279110e-06 -4.11311848e-05
      -3.18205202e-05 -1.41687115e-05 6.25040848e-05 4.23704114e-05
      3.46813395e-05 8.25507959e-05 1.01981124e-04 5.65565024e-05
      -3.26288932e-06 5.43550368e-06 5.43550368e-06 1.01704818e-05
      6.70569761e-06 -5.64492948e-05 -8.17553519e-05 -7.50379622e-05
      -2.29076413e-05 3.35416553e-05 4.12307236e-05 3.97000695e-05
      3.97000695e-05 2.69754401e-05 2.69754401e-05 8.23189330e-05
      1.38925156e-04 8.67948329e-05 5.23533490e-05 6.86564235e-05
      3.65728156e-05 4.50628795e-05 6.51821974e-05 7.51390908e-05
      2.30087717e-05 -3.68106193e-05 -1.79300496e-05 -1.79300496e-05
      -3.68106193e-05 -2.48606848e-05</_>
    <_>
      -4.07538573e-05 -3.35112454e-05 -3.95617026e-05 -2.05870492e-05
      4.24454993e-05 3.34598808e-05 3.34598808e-05 4.19989046e-05
      3.47562891e-05 0. 0. 0. 0. 0. 0. 0. 2.59487388e-05 2.59487388e-05
      0. 0. 0. 0. 0. 7.24261326e-06 0. 2.62172689e-05 7.24261326e-06
      1.96356837e-06 2.62172689e-05 7.24261326e-06 3.34598808e-05
      4.19989046e-05 4.19989046e-05 8.53902202e-06 8.53902202e-06 0. 0.
      2.17044108e-05 2.17044108e-05 -6.87136264e-07 -6.87136264e-07 0.
      0. 0. 0. 0. 0. 0. 0. 0. 2.62172689e-05 7.24261326e-06
      2.01668099e-05 7.24261326e-06 3.34598808e-05 3.34598808e-05
      9.40839163e-05 4.19989046e-05 8.53902202e-06 8.53902202e-06
      2.17044108e-05 4.94096748e-05 1.89812017e-05 2.51831011e-06
      -1.62796296e-05 -2.89146246e-05 -7.06145647e-06 -4.31245389e-05
      -2.07329922e-05 -1.43586713e-05 0. 0. 0. 0. 0. 2.62172689e-05 0.
      2.62172689e-05 3.34598808e-05 3.34598808e-05 8.55448961e-05
      9.40839163e-05 3.47562891e-05 8.53902202e-06 5.90726449e-05
      8.61771186e-05 6.10748175e-05 6.90127035e-06 8.43616435e-05
      5.84129084e-05 -4.29884130e-05 -1.42735289e-05 -1.62829110e-05
      -1.23622467e-05 -1.43586713e-05 -1.43586713e-05 0. 0. 0. 0.
      3.34598808e-05 2.62172689e-05 3.34598808e-05 2.62172689e-05
      8.55448961e-05 8.55448961e-05 9.40839163e-05 3.47562891e-05
      7.19428572e-05 8.16973770e-05 6.83667022e-05 3.14484146e-06
      7.84417498e-05 -4.14762762e-05 -4.75267334e-05 -2.32178736e-05
      -1.35479677e-05 -2.30848163e-05 5.92766537e-06 4.48899082e-05
      -2.05463124e-07 0. 0. 0. 0. 7.24261326e-06 3.34598808e-05
      3.34598808e-05 2.62172689e-05 8.55448961e-05 8.55448961e-05
      4.19989046e-05 5.64921356e-05 1.20664874e-04 9.19687518e-05
      9.26683570e-05 7.25998034e-05 1.50483493e-05 -1.53243091e-05
      -1.42322560e-05 -6.18854028e-05 4.53178072e-05 4.00755125e-05
      -2.53467588e-05 4.25284525e-05 -2.64227310e-05 -7.13126428e-05 0.
      0. 0. 0. 3.34598808e-05 3.34598808e-05 8.55448961e-05
      8.55448961e-05 8.55448961e-05 8.09663979e-05 7.19428572e-05
      1.02387530e-04 7.10953827e-05 4.08921005e-05 2.13940766e-05
      -4.63639299e-05 -8.91598902e-05 -6.86600906e-05 -1.57046361e-05
      1.93690703e-05 5.92202487e-05 -2.28055105e-05 2.22398394e-05
      -2.64227310e-05 5.92485812e-05 0. 0. 0. -6.37432004e-06
      3.34598808e-05 8.55448961e-05 8.55448961e-05 8.55448961e-05
      8.55448961e-05 8.27094045e-05 9.89604669e-05 6.09469607e-05
      9.85369043e-05 3.42642925e-05 -1.34596496e-06 -1.42322560e-05
      -2.32178736e-05 -5.31997539e-05 -5.56317173e-05 5.28310447e-05
      -1.55042096e-06 8.85562531e-06 8.39824643e-05 1.63111836e-05
      5.92485812e-05 0. 0. 0. -4.45664682e-07 8.55448961e-05
      8.55448961e-05 8.55448961e-05 8.55448961e-05 4.19989046e-05
      6.80582598e-05 7.21281031e-05 4.04273669e-05 6.66634442e-05
      2.19600515e-05 -6.17387777e-05 -6.18854028e-05 -3.38066748e-05
      -2.32178736e-05 -1.42322560e-05 -6.32366255e-06 2.46668478e-05
      3.86889624e-05 8.54548416e-05 2.22398394e-05 5.92485812e-05
      5.92485812e-05 0. 0. 9.22614254e-06 8.55448961e-05 8.55448961e-05
      8.55448961e-05 3.34598808e-05 5.47491327e-05 6.76321724e-05
      7.87791723e-05 6.77323187e-05 1.78742175e-05 -6.36577461e-05
      -1.71404608e-05 -6.21853687e-05 -7.85793600e-06 -5.56317173e-05
      -5.31997539e-05 -5.11660655e-05 5.36159641e-05 3.86889624e-05
      8.54548416e-05 6.22780572e-05 5.92485812e-05 5.92485812e-05 0. 0.
      -1.20965360e-05 8.55448961e-05 8.55448961e-05 3.34598808e-05 0.
      1.76936883e-05 2.93852409e-05 -1.65501297e-05 1.08040213e-05
      -9.54457646e-05 2.40952863e-06 1.13858761e-04 6.37160629e-05
      -4.93321340e-06 -1.42322560e-05 -1.33498004e-04 -5.41643494e-05
      4.24634891e-05 3.86889624e-05 6.37504345e-05 6.22780572e-05
      5.92485812e-05 5.92485812e-05 0. 0. 4.11015862e-05 7.11862231e-05
      7.24261326e-06 0. -3.02594235e-05 2.62648591e-05 -9.25845234e-06
      4.25037069e-06 -4.40655931e-05 2.06322002e-05 1.28443848e-04
      1.71110907e-04 6.37160629e-05 8.61113513e-05 3.78448131e-05
      -6.83942344e-05 -3.87136242e-05 4.24634891e-05 -8.96418715e-06
      7.33583220e-05 6.22780572e-05 5.92485812e-05 5.92485812e-05 0. 0.
      -1.20965360e-05 -7.11605844e-06 0. -3.02594235e-05 -4.17934025e-05
      -3.94450144e-05 -9.04404442e-05 -5.31997539e-05 -4.51344604e-05
      8.20822170e-05 1.63260163e-04 2.15206877e-04 1.15793126e-04
      1.00470024e-04 -1.91091567e-05 -1.24363854e-04 -3.87136242e-05
      4.24634891e-05 1.69845516e-05 7.63752905e-05 7.08170774e-05
      6.77876014e-05 5.92485812e-05 0. 0. -1.16508709e-05
      -1.43586713e-05 -4.46180966e-05 -5.61520719e-05 -1.58381110e-04
      -1.75739537e-04 -1.56876180e-04 -5.31997539e-05 3.49351976e-05
      1.34777918e-04 2.14137995e-04 2.15320106e-04 1.15793126e-04
      8.61113513e-05 -3.34678298e-05 -9.45305146e-05 -3.87136242e-05
      -7.86893543e-06 3.01499404e-05 1.39414669e-05 6.22780572e-05
      6.77876014e-05 0. 0. 0. 1.86085526e-05 -1.43586713e-05
      -4.46180966e-05 -9.30960814e-05 -2.43797796e-04 -2.27816607e-04
      -1.56876180e-04 -3.44035470e-05 4.32081215e-05 3.58692268e-05
      1.29242864e-04 1.37371782e-04 3.78448131e-05 -8.14209416e-05
      -3.34678298e-05 -8.14129962e-05 9.12062460e-05 2.79562228e-05
      -2.08056445e-05 -2.27528944e-05 -1.56702608e-05 -1.23622467e-05 0.
      0. 0. -2.51942292e-05 -1.43586713e-05 -6.53142561e-05
      -1.47578146e-04 -2.56907369e-04 -2.27816607e-04 -1.56876180e-04
      -8.41275323e-06 1.71213378e-05 1.67507405e-05 4.50285515e-05
      7.50414765e-05 2.88591946e-05 -7.24353231e-05 -3.01018663e-05
      -6.06719077e-05 7.06670398e-05 4.53588909e-05 -3.87450600e-05
      -6.69095753e-05 -9.18965598e-05 -7.16108261e-05 0. 0. 0.
      -2.51942292e-05 -1.43586713e-05 -1.08062857e-04 -2.18890782e-04
      -2.56907369e-04 -2.48368364e-04 -1.87778394e-04 -7.94094885e-05
      -5.31997539e-05 -4.12498630e-05 -8.38897831e-05 -7.46089863e-05
      -1.33051421e-04 -3.47562891e-05 -1.75246387e-05 -1.52601351e-05
      -5.82085158e-06 -6.77582939e-05 -8.24408708e-05 -1.29090229e-04
      -1.13714203e-04 -6.42710365e-05 -6.27736154e-05 0. 0.
      -3.67502180e-05 -1.43586713e-05 -1.08062857e-04 -2.06902696e-04
      -1.48699633e-04 -1.40160613e-04 -7.95706510e-05 -4.46215063e-06
      2.00736322e-05 7.85247612e-05 3.32939671e-05 -1.61356020e-05
      -1.61356020e-05 2.24958658e-05 -8.24408708e-05 3.57669051e-05
      3.95968273e-05 -8.50502402e-05 -1.06571235e-04 -9.07417852e-05
      -1.37748386e-04 -1.37748386e-04 -7.13126428e-05 0. 0.
      -3.67502180e-05 -8.56713086e-05 -8.56713086e-05 -1.08062857e-04
      -3.67502180e-05 -1.21042125e-04 -1.12056507e-04 -5.32986414e-05
      5.91024072e-05 7.63265271e-05 6.87925567e-05 -1.05528206e-05
      1.67966919e-05 -2.82056844e-05 3.90215500e-05 -5.73459038e-05
      1.36597846e-05 -4.80945600e-05 -2.92567111e-05 -9.65790168e-05
      -1.37748386e-04 -1.23389706e-04 -7.13126428e-05 0. 0.
      -1.43586713e-05 -7.13126428e-05 -8.56713086e-05 -8.56713086e-05
      -1.43586713e-05 -5.81964969e-06 -5.81964969e-06 9.37378063e-05
      1.55616362e-04 2.02106705e-04 1.31055058e-04 1.86889316e-04
      8.25663737e-05 1.44011847e-05 5.64710099e-05 6.27736154e-05
      -9.67505475e-05 -1.28294132e-05 -1.07475586e-04 -5.94540434e-05
      -7.13126428e-05 -7.13126428e-05 0. 0. 0. 0. -7.13126428e-05
      -8.56713086e-05 -8.56713086e-05 -1.43586713e-05 -5.81964969e-06
      -5.81964969e-06 4.62653661e-05 1.24908533e-04 1.16648866e-04
      1.45152735e-04 2.62414978e-04 1.37141440e-04 1.77475900e-04
      9.44158819e-05 7.40445785e-06 -3.68437359e-05 2.66749576e-05
      -5.85778034e-05 -5.94540434e-05 -7.13126428e-05 0. 0. 0. 0. 0.
      -7.13126428e-05 -7.13126428e-05 -8.56713086e-05 -1.43586713e-05
      -5.81964969e-06 -5.81964969e-06 -5.81964969e-06 8.53902202e-06
      4.32096822e-05 1.07648011e-04 1.29238746e-04 2.28934696e-05
      4.15186041e-05 1.61762146e-05 -1.21059980e-04 -6.90577363e-05
      -1.58438888e-05 -5.22034825e-05 -4.50953703e-05 -7.13126428e-05 0.
      0. 0. 0. -3.02594235e-05 -1.01572063e-04 -1.01572063e-04
      -1.01572063e-04 -5.80412488e-05 3.03646120e-05 8.53902202e-06
      8.53902202e-06 -6.27736154e-05 -6.27736154e-05 3.80627534e-05
      1.27671796e-04 9.62970225e-05 5.24451480e-06 -8.69357682e-05
      -2.08295623e-05 -5.41255067e-05 -1.26415259e-07 -1.26415259e-07
      -4.50953703e-05 -7.13126428e-05 0. 0. 0. 0. -3.02594235e-05
      -1.01572063e-04 -1.01572063e-04 -1.01572063e-04 2.18255900e-05
      3.03646120e-05 -2.17204033e-05 -2.17204033e-05 -6.27736154e-05
      -6.27736154e-05 8.10999882e-06 -2.62967696e-05 -7.67163692e-06
      -1.49656134e-05 -7.94976513e-05 -4.51210981e-05 4.49689578e-05
      -1.26415259e-07 1.42322560e-05 -4.50953703e-05 -7.13126428e-05 0.
      0. 2.59487388e-05 -5.08778357e-05 -1.87034366e-05 -1.17797899e-04
      -9.00160740e-05 -3.79310623e-05 2.18255900e-05 -4.04215598e-06
      -2.17204033e-05 -2.17204033e-05 -5.12176302e-05 -4.39750147e-05
      1.30634644e-05 3.43272659e-05 -1.77577476e-05 8.10999882e-06
      9.12812320e-05 3.19536084e-05 5.35079780e-05 1.42322560e-05
      1.42322560e-05 -4.50953703e-05 -6.23270244e-05 2.59487388e-05
      2.59487388e-05 0. 0.</_>
    <_>
      -1.15113498e-05 -7.36806896e-06 -7.36806896e-06 3.63917352e-05
      4.05350183e-05 4.05350183e-05 3.94819799e-05 4.21672084e-05
      3.80239289e-05 -5.40372712e-05 -6.99947414e-05 -1.07560918e-04
      -1.07560918e-04 -1.07560918e-04 -4.93951775e-05 -6.99947414e-05
      -4.00690442e-05 -4.81268144e-05 -1.59574683e-05 -1.59574683e-05
      -3.84747455e-06 1.21099938e-05 1.21099938e-05 1.62532742e-05
      1.21099938e-05 3.63917352e-05 -7.36806896e-06 4.79030859e-05
      4.79030859e-05 4.14328088e-06 5.09933307e-05 4.21672084e-05
      4.21672084e-05 -9.87915791e-06 -9.87915791e-06 -6.99947414e-05
      -1.07560918e-04 -1.06507883e-04 -1.06507883e-04 -1.06507883e-04
      -1.06507883e-04 -1.06507883e-04 -6.89417066e-05 -1.59574683e-05
      -3.84747455e-06 -3.84747455e-06 1.21099938e-05 1.21099938e-05
      1.21099938e-05 1.21099938e-05 4.79030859e-05 4.14328088e-06
      4.79030859e-05 4.14328088e-06 5.20463655e-05 5.09933307e-05
      8.90023948e-05 4.32202469e-05 -8.82612039e-06 2.16071821e-05
      2.63050197e-06 4.35781367e-05 6.71366870e-05 6.76538766e-05
      1.67661765e-05 -1.79626895e-05 -3.65352680e-05 -7.92316278e-05
      -3.18889361e-05 -4.14136484e-05 -3.84747455e-06 1.21099938e-05
      1.21099938e-05 1.21099938e-05 1.21099938e-05 4.79030859e-05 0.
      1.03369102e-05 5.20463655e-05 5.20463655e-05 5.84448462e-05
      4.96187276e-05 -6.12935110e-05 -1.31963956e-04 -5.68287796e-05
      -3.46908892e-05 -1.88036029e-05 3.09041243e-05 9.82672573e-05
      6.26340770e-05 1.89420064e-06 -6.02345153e-06 6.44638931e-06
      -5.78601466e-05 -8.38331398e-05 -5.16963119e-05 1.82733106e-06
      1.21099938e-05 -7.43804121e-05 -7.43804121e-05 5.20463655e-05
      4.79030859e-05 1.44801907e-05 1.03369102e-05 5.84448462e-05
      5.84448462e-05 -2.58818982e-05 -1.24706188e-04 -1.08025633e-04
      -1.73947137e-05 -2.01768944e-05 -2.43131035e-05 9.68961394e-05
      4.65633129e-05 6.69601432e-05 1.00468147e-04 1.45682634e-05
      1.45232925e-05 1.07288988e-05 -4.69330844e-05 4.37787785e-05
      -8.46630719e-05 -8.46630719e-05 -7.43804121e-05 -7.43804121e-05
      -1.18141879e-05 5.20463655e-05 1.44801907e-05 1.03369102e-05
      2.08786714e-05 4.85796118e-05 -8.25823226e-05 -1.05882355e-04
      -5.89825067e-05 -1.04432620e-05 -2.49299355e-05 -7.77907262e-05
      5.75105241e-06 6.17752230e-05 9.92196146e-05 1.14964547e-04
      1.04391445e-04 -6.56457778e-05 -1.30393062e-04 -6.15274184e-05
      -8.59985157e-05 -8.53404345e-05 -7.50577747e-05 -7.43804121e-05
      -7.43804121e-05 -3.84747455e-06 6.41563602e-05 1.44801907e-05
      6.02623404e-05 1.16907986e-05 2.74151057e-06 -1.00175879e-04
      -8.03885778e-05 -6.23331944e-05 -5.76148341e-05 -1.32569228e-04
      -1.23819787e-04 -1.78151240e-05 -1.58604627e-04 2.66002990e-05
      -2.02586834e-05 3.68829642e-05 2.75866187e-05 -7.96066161e-05
      -1.79863600e-05 -7.78428803e-05 -5.49545875e-05 -7.50577747e-05
      -7.50577747e-05 -7.43804121e-05 -4.86325371e-05 6.41563602e-05
      6.02623404e-05 6.02623404e-05 1.16907986e-05 -2.77334730e-05
      -4.05095161e-05 -1.69867253e-05 -8.38432243e-05 -2.47058888e-05
      -1.82464155e-05 -3.99532764e-05 4.67334721e-05 3.68232759e-05
      4.04670063e-05 6.97996147e-05 1.00300058e-04 1.26305764e-04
      2.42670740e-05 1.77652782e-06 -2.55358964e-06 -2.82769797e-05
      -7.50577747e-05 -8.71677694e-05 -7.43804121e-05 -4.34127069e-05
      1.09938512e-04 7.15730785e-05 6.02623404e-05 1.16907986e-05
      -2.93575049e-05 -6.68726279e-05 8.24821598e-07 -6.24348831e-05
      2.02701558e-05 -1.11543275e-04 -5.78214094e-05 -3.99575583e-06
      1.01622820e-04 1.49879430e-04 1.43137353e-04 1.41669574e-04
      1.66122947e-04 9.95490409e-05 2.97046154e-05 1.41775899e-05
      -2.82769797e-05 -5.48758653e-05 -8.64904068e-05 -3.26750669e-05
      -4.27831219e-05 6.51534428e-05 1.09938512e-04 6.02623404e-05
      -9.14408010e-05 -3.34946853e-05 -4.12037516e-05 -2.41355428e-05
      1.05463359e-05 -7.24112688e-05 -7.65245859e-05 -4.14194110e-05
      -1.79076596e-05 3.22461674e-05 7.55152796e-05 3.88505905e-05
      4.59164366e-05 1.97624657e-04 1.65988662e-04 5.06046417e-05
      5.20197900e-05 4.67807949e-05 3.16145379e-05 0. -5.16387008e-05
      -1.74961333e-05 4.61898126e-05 1.09938512e-04 1.44801907e-05
      -1.43487166e-04 -6.83712933e-05 -4.17461342e-05 -2.03241816e-05
      -8.27309341e-05 -1.10742512e-04 -4.10662069e-05 -2.78729240e-05
      -2.70736691e-05 -1.14116679e-04 -1.29344899e-05 -4.74632498e-06
      7.88154648e-05 7.10782260e-05 2.12020357e-04 8.17539112e-05
      1.06929663e-04 3.64981315e-05 3.16145379e-05 0. -5.16387008e-05
      -1.51164822e-05 4.61898126e-05 1.62532742e-05 -8.61377193e-05
      -9.87021049e-05 -3.91654503e-05 -4.17461342e-05 -9.02456595e-05
      -5.02559706e-05 -6.74782204e-05 -1.16907986e-05 -4.92569743e-05
      -4.92569743e-05 -7.51246407e-05 2.68657677e-05 -7.41247231e-06
      -9.30986971e-06 7.36946677e-05 2.87953462e-05 1.25912018e-04
      1.06929663e-04 3.64981315e-05 2.13318726e-05 0. -5.16387008e-05
      -1.16746705e-04 -4.74954213e-05 -6.85363966e-06 -8.61377193e-05
      -9.76490628e-05 1.59022766e-05 3.83950319e-05 -6.92326576e-05
      -9.88275133e-05 -9.54502029e-05 -2.08786714e-05 -1.16907986e-05
      4.26667066e-06 -3.75584641e-05 1.51755758e-05 -1.61069067e-04
      -1.31343884e-04 -8.79558138e-05 -7.68374084e-05 -5.66786985e-05
      1.13693626e-04 7.14683702e-05 2.13318726e-05 -1.02826634e-05
      -5.16387008e-05 -2.03754302e-04 -5.16387008e-05 -1.89636339e-05
      -8.61377193e-05 -8.61377193e-05 1.33050426e-05 3.84886926e-06
      9.28825757e-05 9.34885975e-05 9.22238105e-05 9.50270041e-05
      8.96256097e-05 9.88134780e-05 7.29458188e-05 2.29877078e-05
      -6.09846611e-05 -9.37777149e-05 -1.54096619e-04 -1.54750989e-04
      -1.60479627e-04 -6.70854570e-05 5.00316855e-05 -1.09600269e-05
      -1.02826634e-05 -5.16387008e-05 -1.68005019e-04 -6.85363966e-06
      -1.89636339e-05 -3.93836672e-05 -8.61377193e-05 -1.35577711e-05
      6.26675028e-05 1.48800958e-04 1.49590225e-04 6.78045981e-05
      1.25815874e-04 2.01666786e-04 1.18606709e-04 4.59741277e-05
      1.73764947e-05 -1.19314682e-05 -1.99696442e-05 -4.74653025e-05
      -1.18475218e-04 -2.15137392e-04 -1.18933582e-04 -5.63777940e-06
      -1.09600269e-05 -1.02826634e-05 -5.16387008e-05 -1.00318524e-04
      -6.85363966e-06 0. 0. 0. 9.72678026e-06 1.16951487e-04
      1.29638458e-04 2.03050775e-04 1.47376428e-04 1.93976084e-04
      1.98255540e-04 1.86748322e-04 7.44172139e-05 1.14850096e-04
      6.93508628e-05 8.18887656e-06 3.56187993e-05 -1.08055588e-04
      -1.70979285e-04 -1.38306452e-04 -8.06004246e-05 -4.32306988e-05
      -6.77363460e-07 1.21099938e-05 -8.43610542e-05 1.21099938e-05 0.
      0. 0. -4.23322890e-05 8.25007082e-05 1.92288033e-04 1.66659054e-04
      2.33833242e-04 1.92507956e-04 -7.28209761e-06 9.86433006e-05
      1.13293470e-04 2.50481407e-05 -7.80667833e-05 -1.11568897e-05
      -1.81885443e-05 -1.36585368e-04 -1.09371031e-04 -4.27426094e-05
      -3.64423067e-05 1.24387661e-05 1.14326303e-05 1.14326303e-05
      1.21099938e-05 0. 0. 0. -1.25643874e-05 -3.96757423e-05
      1.59594329e-05 9.35923672e-05 8.52910598e-05 1.74062559e-04
      1.30133252e-04 1.56816284e-04 5.31729893e-05 1.02549384e-04
      -7.01168465e-05 1.46577995e-05 5.40421115e-06 -8.85342524e-05
      -1.44547244e-04 -4.47946477e-05 -1.53886955e-04 -6.90890738e-05
      -6.77363460e-07 1.14326303e-05 1.14326303e-05 1.21099938e-05 0. 0.
      -1.02409113e-05 -2.17522611e-05 -4.88636142e-05 -1.87996975e-05
      -2.54614315e-06 9.02797037e-05 5.66775161e-05 5.42077942e-05
      -1.95279927e-06 2.40498503e-05 3.18782913e-05 -3.24164466e-05
      -1.22475089e-04 -8.44269525e-05 -6.39162827e-05 -2.59394328e-05
      -7.01860845e-05 -1.42805031e-04 -9.86523719e-06 -4.92489053e-05
      -6.77363460e-07 0. 0. 0. -9.18787373e-06 -4.85715391e-05
      -5.94972771e-05 -5.87363138e-05 -2.34081410e-04 -1.40432472e-04
      -1.58954121e-04 -2.34523595e-05 -3.91072099e-05 -8.17267064e-05
      -5.27511547e-05 -9.40006212e-05 -8.70836229e-05 -4.70802370e-05
      -1.05001945e-05 -8.07857286e-05 -7.28349332e-05 -9.57012089e-05
      -3.80470883e-05 -9.86523719e-06 -4.92489053e-05 -4.92489053e-05
      -9.18787373e-06 -1.15113498e-05 -1.15113498e-05 -8.64904068e-05
      -1.35061942e-04 -1.44934646e-04 -1.45561586e-04 -1.86435835e-04
      -1.44705002e-04 -1.14597155e-04 -1.21935082e-04 -2.53001526e-05
      8.84479086e-05 5.49884571e-05 4.37056005e-05 9.82220299e-05
      5.64024776e-05 -1.41288301e-05 -3.56081109e-05 -1.11274407e-04
      -2.50651028e-05 -6.77363460e-07 -6.77363460e-07 -4.85715391e-05
      -4.85715391e-05 2.92212007e-06 -1.15113498e-05 -9.80017503e-05
      -1.37385417e-04 -1.46573293e-04 -1.35061942e-04 -1.00776531e-04
      -1.60614407e-04 -1.61413656e-04 -2.01967530e-04 -1.50526786e-04
      -2.95782193e-05 6.27926711e-05 1.11000860e-04 1.09048247e-04
      1.30463814e-04 4.21473924e-05 -4.88070436e-05 -6.75479096e-05
      8.11936843e-05 4.79030859e-05 0. 0. -3.64615480e-05
      -3.64615480e-05 2.92212007e-06 0. -9.80017503e-05 -1.37385417e-04
      -1.37385417e-04 -1.25874067e-04 -3.59338082e-05 -1.22590194e-04
      -1.50741704e-04 -7.10208988e-05 -4.27200903e-05 2.78049010e-05
      1.09356020e-04 1.05808809e-04 1.04736173e-04 8.66750088e-06
      4.87890356e-05 -4.78174752e-06 2.88868086e-05 8.18710469e-05
      4.79030859e-05 1.21099938e-05 1.21099938e-05 -3.64615480e-05
      -5.72208701e-05 -1.78372029e-05 -2.07593221e-05 0. 0.
      -3.93836672e-05 1.08059812e-05 6.26665933e-05 -3.60997947e-05
      -3.60997947e-05 -1.26735949e-05 -1.26735949e-05 3.72518334e-05
      -4.78534412e-06 -1.10495630e-05 4.09968052e-05 4.09968052e-05
      4.70725990e-06 6.72960232e-06 9.78285170e-05 9.78285170e-05
      6.00130807e-05 1.21099938e-05 1.21099938e-05 -3.87850232e-05
      -4.79173286e-05 -2.12907817e-05 -2.07593221e-05 -2.07593221e-05
      -2.07593221e-05 4.57821479e-05 4.57821479e-05 4.79030859e-05
      4.41581142e-05 -8.82612039e-06 3.28387341e-06 -8.53031452e-06
      3.72518334e-05 8.51549194e-05 3.93727714e-05 3.72518334e-05
      8.51549194e-05 2.31194954e-05 9.40835453e-05 9.78285170e-05
      1.09938512e-04 6.00130807e-05 1.21099938e-05 3.29248833e-05
      -3.35089362e-06 -3.20268628e-05 7.56298596e-06</_>
    <_>
      4.93165826e-05 4.93165826e-05 6.96261559e-05 7.84851363e-05
      4.64970581e-05 2.61874866e-05 2.61874866e-05 5.81755594e-05
      2.36045416e-05 -4.55887348e-05 0. 2.38144421e-05 9.49051537e-05
      -2.12170344e-05 -2.12170344e-05 -5.38904533e-05 -4.43662357e-05
      -4.43662357e-05 -4.43662357e-05 -4.43662357e-05 -4.43662357e-05
      -4.43662357e-05 -4.43662357e-05 0. 0. 4.93165826e-05
      4.93165826e-05 4.93165826e-05 5.81755594e-05 5.81755594e-05 0. 0.
      0. 0. -3.45710177e-05 -1.07565775e-05 9.77651362e-05
      5.27336597e-05 5.27336597e-05 -2.12170344e-05 -4.50314765e-05
      -8.93977121e-05 -4.43662357e-05 -4.43662357e-05 -4.43662357e-05
      -4.43662357e-05 -4.43662357e-05 -4.43662357e-05 0. 0.
      4.93165826e-05 4.93165826e-05 5.81755594e-05 0. 0. 0. 0. 0.
      -4.58408722e-05 -4.94175365e-05 -3.57666454e-06 3.09943534e-05
      1.50892220e-05 7.96792374e-05 2.59150729e-05 -3.84260638e-05
      -8.27922995e-05 -8.93977121e-05 -4.43662357e-05 -4.43662357e-05
      -4.43662357e-05 -4.43662357e-05 -4.43662357e-05 0. 0.
      -8.85897771e-06 0. 0. 0. 0. 0. 0. -4.58408722e-05 -1.48465178e-05
      -1.60390831e-04 -9.44591229e-05 -1.18324628e-04 -8.42718291e-05
      8.17227628e-05 3.23722081e-04 1.68596045e-04 1.17241761e-04
      -1.81164905e-05 0. 0. 0. 0. 0. 0. 0. -8.85897771e-06 0. 0. 0. 0.
      0. 2.81098237e-05 -9.36200522e-05 -1.31264489e-04 -1.55541988e-04
      -4.12029985e-05 -2.88311185e-05 2.03801465e-05 1.05849313e-05
      4.84725570e-05 5.23529525e-05 1.06224048e-04 6.11988507e-05 0. 0.
      0. 0. 0. 0. 0. 0. 0. 0. 0. 0. 5.19242640e-05 1.60586816e-04
      1.41618060e-04 1.52179182e-05 7.95157248e-05 1.14298433e-04
      1.38830028e-05 -5.28877790e-05 2.08742749e-05 -1.85054014e-05
      -1.82528693e-05 7.42359698e-05 1.26710016e-04 6.55111653e-05
      6.55111653e-05 6.55111653e-05 6.55111653e-05 0. 0. 0. 0. 0. 0. 0.
      -1.67145281e-05 8.10506099e-05 1.73276014e-04 2.57648528e-04
      1.74656670e-04 1.43200115e-04 6.09241324e-05 1.58926541e-05
      -1.05666140e-05 -7.73373977e-05 -5.12059087e-05 1.30792623e-05
      -4.59735529e-05 2.08888446e-06 6.55111653e-05 6.55111653e-05
      6.55111653e-05 6.55111653e-05 0. 0. 0. 0. 0. 0. -2.89016916e-05
      2.78084917e-05 1.25573628e-04 2.17799025e-04 3.06859787e-04
      1.78941249e-04 1.89732789e-04 2.42313414e-04 2.43562827e-04
      1.50779961e-04 1.49296902e-04 -6.24245222e-05 -3.27616108e-05
      -1.65434540e-04 -2.98991890e-05 3.44287073e-05 3.66094719e-05
      6.55111653e-05 0. 0. 0. 0. 4.96280081e-05 0. -2.89016916e-05
      1.56213282e-05 7.36493603e-05 7.36493603e-05 2.26269884e-04
      2.51633290e-04 1.82109245e-04 3.78197146e-04 2.51932128e-04
      1.35045368e-04 2.30575053e-04 1.37624869e-04 -6.04684064e-05
      -3.05808426e-05 -1.65434540e-04 -8.45990362e-05 2.87939679e-06
      6.55111653e-05 6.55111653e-05 0. 0. 0. 0. 7.34424466e-05 0.
      -2.89016916e-05 1.56213282e-05 1.56213282e-05 4.65326702e-05
      1.04708233e-04 1.70219399e-04 5.03871197e-05 2.64437462e-04
      2.43885661e-04 1.58521900e-04 1.39415424e-04 2.42442096e-04
      -1.74061814e-08 -3.05808426e-05 -1.63951467e-04 -7.57400630e-05
      2.87939679e-06 6.55111653e-05 0. 0. 0. 0. 0. 1.59329338e-05
      4.16742353e-07 -2.89016916e-05 -2.89016916e-05 7.37968876e-05
      1.04708233e-04 1.70219399e-04 1.70219399e-04 1.61360425e-04
      2.88251904e-04 2.38205117e-04 2.88758572e-04 2.00837429e-04
      1.50512249e-04 -1.74061814e-08 2.98701580e-05 -7.31782566e-05
      -4.64934874e-06 2.87939679e-06 0. 0. 0. 0. 0. 0. 6.67342101e-05
      2.07263165e-05 -5.40607580e-05 -5.40607580e-05 4.11480050e-06
      4.11480050e-06 7.75395092e-05 7.75395092e-05 7.75395092e-05
      2.04430995e-04 2.36195468e-04 8.50023935e-05 1.75880326e-04
      1.64365047e-04 1.19774159e-04 -4.17318661e-05 -7.11686007e-05
      1.80468687e-05 6.33304007e-05 0. 0. 0. 0. 0. -3.45710177e-05
      -1.09700370e-04 0. 0. -2.51590682e-05 -2.51590682e-05
      -5.40607580e-05 1.93639517e-05 1.93639517e-05 1.93639517e-05
      2.04430995e-04 2.07293779e-04 7.68946993e-05 1.39589929e-05
      1.48900508e-04 4.84001175e-05 7.50258732e-06 -2.14425563e-06
      1.80468687e-05 4.45230180e-05 4.45230180e-05 4.45230180e-05 0. 0.
      0. -3.45710177e-05 -1.09700370e-04 0. 0. 0. 0. 0. 4.45230180e-05
      1.93639517e-05 4.84902957e-05 1.07905500e-04 1.32109917e-05
      1.39589929e-05 7.78097892e-05 7.52510168e-05 7.65910299e-05
      1.72265864e-05 5.66571580e-05 1.25044869e-04 4.45230180e-05
      4.45230180e-05 4.45230180e-05 4.45230180e-05 0. 0. 0.
      -3.02301578e-05 -4.58408722e-05 -4.58408722e-05 -4.58408722e-05 0.
      0. 4.45230180e-05 4.45230180e-05 -2.79924843e-05 1.04168874e-04
      -1.64491939e-05 -3.68631640e-06 4.16030662e-06 8.55930557e-05
      1.30967062e-04 1.09380031e-04 1.74672881e-04 1.50406049e-04
      4.45230180e-05 4.45230180e-05 4.45230180e-05 4.45230180e-05 0. 0.
      0. -3.46269080e-05 -2.89016916e-05 -7.47425656e-05 -4.58408722e-05
      -4.58408722e-05 0. 4.45230180e-05 3.56640412e-05 -8.22732836e-05
      -2.51731853e-05 7.60300327e-06 -5.52783386e-05 1.07285210e-04
      2.53353268e-04 2.56586150e-04 1.86693447e-04 1.09161716e-04
      1.94929074e-04 4.45230180e-05 4.45230180e-05 4.45230180e-05
      4.45230180e-05 4.45230180e-05 0. 0. 2.58240943e-05 -2.89016916e-05
      -7.47425656e-05 -7.47425656e-05 -7.47425656e-05 -2.89016916e-05
      6.76235049e-06 -5.71188284e-05 -1.25879815e-04 -6.20404171e-05
      -5.50287623e-05 2.79698725e-05 2.27294018e-04 2.62110232e-04
      3.27218731e-04 2.31059676e-04 1.02384416e-04 1.92748310e-04
      4.23422534e-05 4.45230180e-05 4.45230180e-05 4.45230180e-05
      4.45230180e-05 0. 0. 0. -2.89016916e-05 -7.47425656e-05
      -7.47425656e-05 -7.47425656e-05 -3.77606702e-05 6.76235049e-06
      -8.75035767e-05 -1.22938320e-04 -6.42211889e-05 -8.39304557e-05
      -1.04056729e-04 6.41251609e-05 1.06954554e-04 1.18729549e-04
      1.50956703e-05 -3.61436360e-05 1.25977531e-04 -2.44285275e-05
      4.45230180e-05 4.45230180e-05 4.45230180e-05 4.45230180e-05 0. 0.
      0. -2.89016916e-05 -7.47425656e-05 -7.47425656e-05 -7.47425656e-05
      -3.77606702e-05 6.76235049e-06 -1.98476875e-04 -1.33781461e-04
      -1.04362611e-04 -9.49481691e-05 -1.04056729e-04 -7.20072057e-05
      -1.90251194e-05 -6.14699093e-05 -4.81308743e-05 -8.41737929e-05
      8.37938296e-06 -2.44285275e-05 4.45230180e-05 4.45230180e-05
      4.45230180e-05 4.45230180e-05 4.45230180e-05 0. 0. 0.
      -7.47425656e-05 -7.47425656e-05 -8.36015388e-05 -3.77606702e-05
      3.56640412e-05 -2.07512378e-04 -1.34646485e-04 -1.04362611e-04
      -6.60464793e-05 -1.20995908e-04 -8.67120398e-05 -1.01399855e-04
      -1.89995277e-04 -2.34037987e-04 -1.41897413e-04 -5.21431321e-05
      -2.44285275e-05 -2.22477629e-05 4.45230180e-05 4.45230180e-05
      4.45230180e-05 4.45230180e-05 0. -2.89016916e-05 0.
      -4.58408722e-05 -4.58408722e-05 -5.46998490e-05 -3.77606702e-05
      6.76235049e-06 -1.76902977e-04 -1.66686514e-04 -1.57350980e-04
      -1.65738631e-04 -1.52244960e-04 -7.29296225e-05 -3.09652496e-05
      -7.45291836e-05 -1.16661387e-04 -1.74287663e-04 4.24767095e-05
      -2.22477629e-05 4.45230180e-05 4.45230180e-05 4.45230180e-05
      4.45230180e-05 4.45230180e-05 4.45230180e-05 -7.47425656e-05
      -2.89016916e-05 -7.47425656e-05 -8.36015388e-05 -5.46998490e-05
      -8.85897771e-06 3.56640412e-05 4.45230180e-05 -1.18691285e-04
      -5.06141623e-05 1.96544315e-05 3.29769828e-05 3.29769828e-05
      1.83850098e-05 1.95866287e-05 -1.71672582e-04 -2.10515340e-04
      -1.30713059e-04 -5.08456310e-07 4.45230180e-05 4.45230180e-05
      3.56640412e-05 3.56640412e-05 3.56640412e-05 3.56640412e-05
      -3.77606702e-05 -3.77606702e-05 -8.36015388e-05 -8.36015388e-05
      -5.46998490e-05 -8.85897771e-06 -3.77606702e-05 6.76235049e-06
      -1.47817467e-04 -6.34404205e-05 1.53866422e-05 -2.96448343e-05
      -3.62502433e-05 -5.65598202e-05 -1.09692694e-04 -2.49981123e-04
      -1.04260274e-04 -1.24890386e-04 -3.45265034e-05 3.56640412e-05
      3.56640412e-05 3.56640412e-05 3.56640412e-05 3.56640412e-05
      3.56640412e-05 -3.77606702e-05 -3.77606702e-05 -3.99414348e-05
      -8.57823034e-05 -1.10397432e-05 -1.10397432e-05 -3.77606702e-05
      -3.77606702e-05 -2.78086682e-05 6.00559360e-05 -1.00420046e-04
      -1.82256888e-04 -4.23819001e-05 -1.53355199e-04 -1.77169641e-04
      -1.35167371e-04 -5.38904533e-05 -7.90495178e-05 -7.90495178e-05
      1.05049739e-05 1.05049739e-05 1.05049739e-05 1.05049739e-05
      3.56640412e-05 1.05049739e-05 -3.55264706e-06 -2.15584114e-05
      -4.36053597e-05 -2.19356716e-05 6.96602046e-06 9.14678640e-06
      -5.43259230e-05 -5.43259230e-05 -5.43259230e-05 -5.21811708e-05
      2.17695233e-05 -2.54427196e-05 -7.12835899e-05 -1.82256888e-04
      -4.55932350e-05 -1.17363161e-04 -1.17363161e-04 -1.13620539e-04
      -6.85890627e-05 -6.85890627e-05 -3.40180450e-05 -3.40180450e-05
      -3.40180450e-05 -4.89170225e-06 1.05142484e-04</_>
    <_>
      -2.88405699e-05 -2.88405699e-05 -2.88405699e-05 -2.88405699e-05
      -2.88405699e-05 -2.88405699e-05 -2.88405699e-05 -2.88405699e-05
      -3.95317038e-05 -4.16836810e-05 -4.25231337e-05 -3.18320017e-05
      -3.18320017e-05 -3.09925490e-05 -3.09925490e-05 -3.09925490e-05
      -3.09925490e-05 -3.09925490e-05 -3.09925490e-05 2.72167949e-06
      2.72167949e-06 2.72167949e-06 2.72167949e-06 2.72167949e-06
      -6.93315014e-05 -2.88405699e-05 -2.88405699e-05 -2.88405699e-05
      -2.88405699e-05 -2.88405699e-05 -3.09925490e-05 -3.09925490e-05
      -4.16836810e-05 -4.16836810e-05 -4.25231337e-05 -1.15305829e-05
      9.62640343e-07 9.62640343e-07 1.16537731e-05 -3.18320017e-05
      -3.09925490e-05 -3.09925490e-05 0. 0. 0. -3.09925490e-05
      -3.09925490e-05 -3.09925490e-05 -3.09925490e-05 -3.09925490e-05
      2.15198020e-06 2.15198020e-06 2.15198020e-06 0. 0. 0. 0. 0.
      -1.06911330e-05 1.80209076e-06 9.62640343e-07 9.62640343e-07
      9.62640343e-07 1.16537731e-05 -2.53067283e-05 -2.53067283e-05 0.
      0. 0. 0. 0. 2.81619759e-05 2.81619759e-05 0. -3.09925490e-05 0. 0.
      0. 0. 0. 0. 0. 0. -6.14081873e-05 -8.67149138e-05 -8.67149138e-05
      -4.76692876e-05 -4.76692876e-05 3.62586470e-05 2.37654240e-05
      2.37654240e-05 2.74804061e-05 -2.53067283e-05 2.81619759e-05
      4.91172468e-05 2.81619759e-05 2.81619759e-05 2.81619759e-05
      2.81619759e-05 0. -8.39450422e-07 -8.39450422e-07 -1.15305829e-05
      -1.15305829e-05 -1.15305829e-05 -1.15305829e-05 -7.10905442e-05
      -1.69459236e-04 -1.77068985e-04 -1.66377853e-04 4.51820142e-06
      7.38729386e-06 7.38729386e-06 7.38729386e-06 1.58493422e-05
      -7.39878669e-05 -4.58258910e-05 8.10891215e-05 -1.47324681e-05
      4.91172468e-05 4.91172468e-05 4.91172468e-05 2.81619759e-05
      2.81619759e-05 2.81619759e-05 -8.39450422e-07 -1.15305829e-05
      -1.15305829e-05 -1.15305829e-05 7.83066280e-05 5.09497440e-05
      -3.56362470e-05 -4.68624858e-05 -1.57216873e-05 5.63314970e-05
      9.61816040e-05 9.61816040e-05 4.50836887e-05 8.47762494e-05
      9.44245694e-05 9.44245694e-05 9.44245694e-05 -3.73273615e-05
      3.56807832e-05 8.92592216e-05 4.88251681e-05 4.91172468e-05
      4.91172468e-05 2.81619759e-05 2.81619759e-05 -8.39450422e-07
      -1.15305829e-05 -1.15305829e-05 -5.13806881e-05 3.84565210e-05
      5.09497440e-05 6.46886474e-05 1.28863860e-04 1.78212111e-04
      1.15658950e-04 1.43820929e-04 1.60519950e-04 1.60519950e-04
      1.24869446e-04 4.03230370e-05 1.28907823e-05 6.34320168e-05
      -6.83199105e-05 -6.73649483e-05 3.56807832e-05 8.92592216e-05
      4.91172468e-05 4.91172468e-05 2.81619759e-05 2.81619759e-05
      -8.39450422e-07 -8.39450422e-07 -8.39450422e-07 -4.06895560e-05
      1.01009682e-04 1.13502909e-04 5.68507312e-05 1.69829422e-04
      2.03699499e-04 2.16192726e-04 1.55791538e-04 1.56083624e-04
      1.22369383e-04 4.03555860e-05 5.24542193e-05 1.20513314e-05
      1.20513314e-05 -1.83328084e-05 -1.53578352e-04 3.29599425e-05
      5.82666689e-05 7.85341763e-06 1.81246960e-05 2.81619759e-05 0. 0.
      0. 0. 2.27030578e-05 1.76315207e-05 4.42458404e-05 1.33743233e-04
      1.89495346e-04 1.89495346e-04 1.47548999e-04 7.43046985e-05
      7.43046985e-05 9.63425846e-05 6.06920767e-05 -9.84893341e-05
      -7.49065875e-05 -8.48857890e-05 -2.98633913e-05 -1.53578352e-04
      -6.89016360e-06 -1.74533106e-05 7.85341763e-06 -2.83057489e-06
      -3.09925490e-05 0. 0. 0. 0. 6.25531611e-05 -5.74126352e-06
      7.28339655e-05 7.78550384e-05 4.68624858e-05 1.85907793e-05
      3.10840041e-05 1.00282734e-04 1.16875650e-04 8.31614161e-05
      -8.64026333e-06 -6.74967887e-05 -6.99408483e-05 -7.99200425e-05
      -1.52827313e-04 -1.61721167e-04 -1.03827282e-04 7.85341763e-06
      7.85341763e-06 -3.09925490e-05 -3.09925490e-05 -3.09925490e-05 0.
      0. 0. 0. 6.47051420e-05 5.05995013e-05 7.49859464e-05
      -2.53389462e-05 -2.53389462e-05 -1.28457232e-05 -1.81120886e-05
      -8.06652533e-05 5.65165683e-05 -5.50035620e-05 -6.77888675e-05
      -6.99408483e-05 -7.99200425e-05 -1.68519236e-05 -5.15474676e-05
      -1.29854088e-04 -8.90837036e-05 -1.31018542e-05 -3.09925490e-05
      -3.09925490e-05 -3.09925490e-05 8.81221786e-05 0. 0.
      -8.39450422e-07 1.31252989e-06 1.31252989e-06 5.31745609e-05
      -1.34361017e-05 -2.09246318e-05 1.22317851e-05 5.26658368e-05
      -1.43359011e-05 -3.21481239e-05 5.76890852e-05 3.16622791e-05
      5.26675794e-05 -4.42695418e-05 1.23966856e-06 -7.98191759e-05
      -1.80267351e-04 -1.35773706e-04 -1.27929670e-04 -3.09925490e-05
      -3.09925490e-05 -3.09925490e-05 7.56289519e-05 0. 0.
      -8.39450422e-07 -8.39450422e-07 -8.39450422e-07 1.11724739e-05
      1.11724739e-05 -1.62758719e-04 -1.30280896e-04 -5.08012163e-05
      -1.10485285e-04 -1.44199512e-04 2.66965362e-05 2.45445553e-05
      1.20513314e-05 -2.88987922e-05 -7.08135121e-05 -8.93191973e-05
      4.27223822e-05 -5.76890852e-05 -1.53956484e-04 -1.27929670e-04 0.
      0. 3.99784476e-05 0. 0. -8.39450422e-07 -8.39450422e-07
      -8.39450422e-07 2.18636069e-05 1.95799748e-05 -6.24338281e-05
      -2.99560052e-05 1.04780456e-05 -1.01603937e-05 3.71842179e-05
      3.71842179e-05 2.45445553e-05 1.20513314e-05 -1.10912595e-04
      -1.06464016e-04 -1.05178769e-04 -7.91599814e-05 -5.79811640e-05
      -5.76890852e-05 -1.27929670e-04 0. 0. 4.19147218e-05 0. 0. 0. 0.
      0. 6.25531611e-05 3.02711087e-05 4.86308090e-06 -4.92668587e-05
      -1.68273345e-05 -1.21208846e-04 -5.01292052e-05 -8.57797058e-05
      -9.84193757e-05 -1.10912595e-04 -1.10912595e-04 -1.49958229e-04
      -1.55135465e-04 -1.28989283e-04 -1.07810469e-04 -5.79811640e-05
      -3.09925490e-05 -3.09925490e-05 -3.09925490e-05 -2.24376363e-05 0.
      0. 0. 0. 0. 6.25531611e-05 7.09606611e-05 1.22229889e-04
      6.21724394e-05 1.01218073e-04 7.81976996e-06 8.80391599e-05
      8.80391599e-05 1.48976414e-05 -6.99408483e-05 -7.99200425e-05
      -5.08602607e-05 -2.37149274e-04 -1.29828739e-04 -2.86643954e-05
      4.46232480e-06 3.12685333e-05 -3.09925490e-05 -3.09925490e-05
      -3.52859279e-05 0. 0. 0. 0. -7.20531825e-05 6.25531611e-05
      1.45384634e-04 1.47536615e-04 2.10443090e-04 1.26524799e-04
      3.31265001e-05 1.14185343e-04 6.06069043e-05 -5.00882161e-05
      -2.97986608e-05 -6.99408483e-05 -1.22228783e-04 -2.06156721e-04
      -1.55135465e-04 -2.95038444e-05 -9.33142437e-05 1.44415253e-05
      -3.09925490e-05 -3.09925490e-05 0. -8.39450422e-07 -8.39450422e-07
      -2.82717065e-05 -1.00324891e-04 -1.00324891e-04 -4.06023028e-05
      1.40671973e-05 1.62191773e-05 7.91256534e-05 1.49163840e-04
      5.57655367e-05 1.36824383e-04 1.11517649e-04 7.28757150e-05
      6.40062935e-05 -1.58103721e-04 -1.53221335e-04 -2.37149274e-04
      -5.48105745e-05 -2.95038444e-05 -2.95038444e-05 -1.09361856e-04
      -1.38620802e-04 -3.09925490e-05 0. -8.39450422e-07 -8.39450422e-07
      -6.89612643e-05 -1.41014447e-04 -1.41014447e-04 -1.27633495e-04
      -7.32560729e-05 5.81991344e-06 1.83131360e-05 6.76300479e-05
      -2.57682532e-05 6.59817233e-05 4.18503805e-06 -4.43302415e-05
      -1.16923926e-04 -1.26524799e-04 -3.02574063e-05 -2.08877565e-04
      -5.48105745e-05 -2.95038444e-05 -2.95038444e-05 -6.95117487e-05
      -1.02094447e-04 -4.16836810e-05 0. -8.39450422e-07 -4.06895560e-05
      -6.89612643e-05 -6.89612643e-05 -1.12852475e-04 -1.19327291e-04
      -1.19619370e-04 -5.66968483e-05 -1.81768173e-05 2.08688125e-05
      -7.25294885e-05 8.52935409e-06 -6.31406729e-05 -9.34546260e-05
      -1.26903120e-04 -9.82530910e-05 7.00674864e-05 -1.01173871e-04
      -5.48105745e-05 -2.95038444e-05 1.03462598e-05 -3.85191961e-05
      -7.11018947e-05 -1.06911330e-05 0. 0. 0. -6.89612643e-05
      -6.89612643e-05 -4.51507440e-05 -3.08971539e-05 -1.38817486e-04
      -1.22258265e-04 -2.12810774e-04 -2.70032528e-04 -1.73095410e-04
      -8.91674790e-05 -8.90577503e-05 -1.91565450e-05 -1.03018290e-04
      -1.42063916e-04 1.08775193e-05 -2.38180237e-05 4.13388116e-05
      4.13388116e-05 5.16100881e-05 5.24495408e-05 -1.13608603e-05
      5.18620291e-05 0. 0. 0. 0. -3.98501033e-05 -3.69948575e-05
      3.38645077e-05 -6.39120626e-05 -1.25589373e-04 -1.34058559e-04
      -1.89128346e-04 -1.89128346e-04 -2.14421234e-04 -1.56469643e-04
      -1.56469643e-04 -9.34622512e-05 -2.13566731e-04 -4.65210796e-05
      5.13180094e-05 5.13180094e-05 5.24495408e-05 1.87353107e-05
      7.84763470e-05 8.55762628e-05 5.18620291e-05 0. 0. 0. 0. 0.
      -2.53067283e-05 -2.53067283e-05 -2.59764565e-05 -7.23397534e-05
      -9.35607604e-05 -1.17068295e-04 -1.54625683e-04 -1.54625683e-04
      -1.51756598e-04 -1.05393294e-04 -1.56092690e-04 -1.33655063e-04
      -1.07628250e-04 -1.13608603e-05 -1.13608603e-05 -4.50750886e-05
      5.18620291e-05 8.55762628e-05 8.55762628e-05 8.55762628e-05
      -3.27814123e-05 -3.27814123e-05 0. 0. 0. 0. -2.53067283e-05
      -2.53067283e-05 6.25531611e-05 7.50463878e-05 -1.28135052e-05
      -1.28135052e-05 -7.07049912e-05 -7.15444476e-05 9.62640343e-07
      -1.06911330e-05 -1.06911330e-05 -1.06911330e-05 -1.06911330e-05
      5.18620291e-05 5.18620291e-05 5.18620291e-05 8.55762628e-05
      9.62673948e-05 9.62673948e-05 -2.31577160e-05 -5.88082185e-05
      -5.88082185e-05 -5.88082185e-05 -3.56505043e-05 -3.56505043e-05 0.
      0. 0. 0. 1.24932239e-05 1.24932239e-05 1.24932239e-05
      1.16537731e-05 -1.93387768e-05 -3.09925490e-05 -4.16836810e-05
      -4.16836810e-05 -3.09925490e-05 -3.09925490e-05 -3.09925490e-05
      -3.09925490e-05 -3.09925490e-05 2.72167949e-06 6.52748422e-05</_>
    <_>
      -1.12307334e-05 -1.12307334e-05 -3.60602426e-05 -3.60602426e-05
      1.28464799e-05 1.28464799e-05 1.28464799e-05 1.28464799e-05
      1.28464799e-05 -7.13728286e-06 -7.13728286e-06 9.03346233e-08
      1.05848903e-05 -2.90274306e-06 -1.01303604e-05 -1.01303604e-05
      -1.01303604e-05 -1.01303604e-05 -1.01303604e-05 -1.01303604e-05
      -1.01303604e-05 -1.01303604e-05 -1.01303604e-05 -1.01303604e-05
      -1.01303604e-05 9.85340193e-06 1.67598364e-06 9.85340193e-06
      9.85340193e-06 9.85340193e-06 0. 0. 0. 0. 0. 0. 3.46502816e-06
      3.46502816e-06 3.46502816e-06 0. -1.01303604e-05 -1.01303604e-05
      -1.01303604e-05 -1.01303604e-05 -1.01303604e-05 -1.01303604e-05
      -1.01303604e-05 -1.01303604e-05 -1.01303604e-05 -1.01303604e-05
      9.85340193e-06 9.85340193e-06 -1.49761063e-05 0. 0. 0. 0. 0. 0.
      3.46502816e-06 3.46502816e-06 -1.35938290e-05 -1.35938290e-05
      -1.35938290e-05 -3.01998498e-05 -3.01998498e-05 -1.31409934e-05
      -9.71447480e-06 0. 0. -1.01303604e-05 -9.99565941e-07
      -9.99565941e-07 -1.01303604e-05 -1.01303604e-05 0. 0. 0. 0. 0. 0.
      0. 0. 3.46502816e-06 3.46502816e-06 3.46502816e-06 -3.76710414e-05
      -1.06954656e-04 -1.63854493e-05 -6.36284403e-06 -1.84542496e-05
      -1.41032478e-05 -2.18058813e-05 -2.96061125e-06 9.13079475e-06
      9.13079475e-06 9.13079475e-06 9.13079475e-06 9.13079475e-06 0. 0.
      0. 0. 0. 0. 0. 3.46502816e-06 3.46502816e-06 3.46502816e-06
      3.46502816e-06 6.68529028e-05 2.47145745e-05 1.50001006e-05
      -2.75336806e-05 -5.58282190e-05 -7.37261362e-05 9.54765801e-06
      1.22037372e-05 -3.34029864e-05 9.13079475e-06 -4.96588036e-05
      9.13079475e-06 9.13079475e-06 9.13079475e-06 9.13079475e-06 0. 0.
      0. 0. 1.78979171e-05 2.13629446e-05 2.13629446e-05 7.66841404e-05
      1.42361881e-04 1.42361881e-04 8.02587965e-05 2.47145745e-05
      -2.19208141e-05 -3.91766916e-05 -4.26417173e-05 -4.28794192e-05
      2.61606533e-06 5.81252061e-05 -4.62711178e-05 -3.73733542e-06
      -3.73733542e-06 -3.73733542e-06 9.13079475e-06 9.13079475e-06
      9.13079475e-06 0. 0. 0. 0. 1.78979171e-05 2.13629446e-05
      2.13629446e-05 1.94683656e-04 1.94683656e-04 1.04336010e-04
      3.79010744e-05 3.35709115e-06 -3.91766916e-05 -3.91766916e-05
      3.27975022e-06 3.27975022e-06 5.15306128e-05 -6.64392928e-07
      -4.62711178e-05 -3.73733542e-06 -3.73733542e-06 5.50522636e-05
      9.13079475e-06 9.13079475e-06 9.13079475e-06 0. 0. 0. 0.
      7.02196921e-05 7.36847214e-05 1.25874823e-04 2.07045232e-04
      1.66379265e-04 9.02228567e-05 6.88464352e-05 6.46781973e-06
      6.46781973e-06 6.46781973e-06 3.00279135e-06 -6.85061059e-06
      5.25932373e-05 1.72335240e-05 -4.62711178e-05 -3.73733542e-06
      -3.73733542e-06 9.13079475e-06 9.13079475e-06 9.13079475e-06 0.
      7.22761752e-06 0. 0. 5.23217786e-05 5.23217786e-05 7.04573977e-05
      1.28368687e-04 1.83438111e-04 1.56756505e-04 9.06765272e-05
      -3.18986386e-05 -6.23410087e-05 6.46781973e-06 6.46781973e-06
      3.00279135e-06 -6.85061059e-06 -1.63267214e-05 2.56969429e-06
      -4.62711178e-05 -3.73733542e-06 -3.73733542e-06 9.13079475e-06
      9.13079475e-06 0. 0. -1.37393963e-05 0. 0. 5.23217786e-05
      5.23217786e-05 6.25152024e-05 9.93571521e-05 8.88129507e-05
      4.85983292e-05 -4.70239183e-06 -2.79171491e-05 -3.71047354e-05
      -6.23410087e-05 1.61822936e-05 3.00279135e-06 -6.85061059e-06
      -1.63267214e-05 2.56969429e-06 -4.62711178e-05 -3.73733542e-06
      -4.96588036e-05 9.13079475e-06 0. 0. 0. -2.19168141e-05 0. 0. 0.
      6.21751824e-05 5.11638900e-05 4.36127630e-05 -6.73221666e-06
      -5.63606845e-05 -8.33380327e-05 -3.90435234e-05 1.63164168e-05
      2.97190345e-05 2.82737001e-05 3.00279135e-06 -6.56402117e-05
      -1.71516476e-05 1.60573272e-05 -3.85035601e-05 -4.96588036e-05
      -4.96588036e-05 9.13079475e-06 0. 0. 0. 1.39143140e-05
      7.22761752e-06 0. 0. -1.11136114e-05 -5.05204262e-05
      -6.56024858e-05 -1.12237874e-04 -1.33549460e-04 -9.20585517e-05
      -5.20950334e-06 2.81701214e-05 4.08284359e-05 5.87160757e-05
      3.69101945e-05 -6.56402117e-05 -1.63267214e-05 1.60573272e-05
      -3.85035601e-05 -4.96588036e-05 -4.96588036e-05 0. 0. 0. 0.
      3.52787938e-05 7.22761752e-06 0. -2.09670143e-05 -7.05041894e-05
      -1.03700455e-04 -1.12376802e-04 -1.52533656e-04 -1.52533656e-04
      -1.24371209e-05 1.96200053e-05 4.80149574e-05 2.95064910e-05
      6.88464352e-05 -2.16024455e-05 -6.56402117e-05 -1.63267214e-05
      1.60573272e-05 -3.21032494e-05 2.05608922e-05 -6.46781973e-06 0.
      0. 0. 0. 3.52787938e-05 0. -2.09670143e-05 -7.05041894e-05
      -1.15791860e-04 -1.64698577e-04 -1.52533656e-04 -1.52533656e-04
      -6.03868284e-05 1.23923874e-05 4.22508128e-05 1.03411789e-04
      8.48276904e-05 5.09485217e-05 -2.16024455e-05 -6.56402117e-05
      -1.71516476e-05 -4.43165009e-05 -3.21032494e-05 -1.07916703e-05
      -6.46781973e-06 5.23217786e-05 0. 0. 0. 5.62458081e-05 0.
      -3.10973737e-05 -1.03700455e-04 -1.64698577e-04 -2.04855431e-04
      -1.52533656e-04 -1.27297375e-04 -7.49641331e-05 -3.82669677e-05
      4.61494201e-05 4.17832052e-05 1.52391194e-05 -3.00628453e-05
      -3.17328049e-05 -6.56402117e-05 4.16379517e-05 -4.87020043e-05
      -1.09567860e-04 -7.45920188e-05 -6.80964004e-05 4.02303740e-05 0.
      0. 0. 4.57874121e-05 0. -7.05041894e-05 -1.52607172e-04
      -2.04855431e-04 -2.04855431e-04 -1.52533656e-04 -1.28456435e-04
      -7.49282553e-05 -9.62927370e-05 -4.23187266e-05 -1.62425658e-05
      1.52391194e-05 -3.00628453e-05 -6.21751824e-05 -6.56402117e-05
      -2.95197933e-05 -3.82802464e-05 -1.42574791e-04 -1.12132417e-04
      -7.91254861e-05 2.55665436e-05 4.21914192e-05 0. 0. 8.24926644e-07
      0. -6.69670189e-05 -2.01266419e-04 -2.04855431e-04 -2.04855431e-04
      -1.52533656e-04 -1.43402853e-04 -1.33549460e-04 -8.41629590e-05
      -6.59800498e-05 -7.03462647e-05 -8.37073312e-05 -7.02196921e-05
      -8.00730995e-05 -6.85061059e-06 -5.35970066e-05 -7.96540189e-05
      -1.93425338e-04 -1.69348117e-04 -9.83153222e-05 7.21557490e-06
      -1.65981801e-05 -1.01303604e-05 0. 0. 0. -5.87895993e-05
      -1.32932590e-04 -1.14299844e-04 -1.14299844e-04 -5.28472738e-05
      -5.28472738e-05 -4.29938700e-05 6.39262589e-06 1.44451706e-05
      -6.96776551e-05 -1.75452788e-05 -4.79979280e-05 -6.99427401e-05
      -5.27720804e-05 -6.27277986e-05 -7.96540189e-05 -1.50591994e-04
      -1.13000111e-04 -3.88571134e-05 -2.91426386e-05 -6.46781973e-06 0.
      0. 0. -5.87895993e-05 -5.87895993e-05 -5.87895993e-05
      -9.71447480e-06 -6.42340601e-05 -2.78148855e-06 -1.98403468e-05
      3.59345249e-05 3.93995542e-05 4.74520966e-05 -3.66707318e-05
      -1.41187593e-05 -4.34644608e-05 -5.70746051e-05 -6.96704301e-05
      -3.78982913e-05 -2.20158563e-05 -9.66180596e-05 -5.59159707e-05
      -3.88571134e-05 -2.91426386e-05 -6.46781973e-06 5.23217786e-05 0.
      0. -5.87895993e-05 -5.87895993e-05 -5.87895993e-05 0.
      9.13079475e-06 6.14525707e-05 6.14525707e-05 1.17227442e-04
      1.20692472e-04 6.99554148e-05 6.55891999e-05 2.60380912e-05
      -4.92290783e-05 -3.57630270e-05 -6.96704301e-05 -8.13731895e-05
      1.56936949e-05 -6.98447257e-05 1.29973591e-06 1.29973591e-06
      1.29973591e-06 5.23217786e-05 5.23217786e-05 0. 0. -5.87895993e-05
      -5.87895993e-05 -5.87895993e-05 0. 9.13079475e-06 6.14525707e-05
      6.14525707e-05 7.13059781e-05 7.47710073e-05 -2.82878300e-05
      -2.82878300e-05 -2.01210787e-05 4.29724821e-07 -8.24612216e-05
      -1.16368625e-04 -7.03301048e-05 -7.28472423e-06 -2.35457464e-05
      1.14300965e-05 1.14300965e-05 7.02196921e-05 7.02196921e-05
      5.23217786e-05 5.23217786e-05 0. -5.87895993e-05 -5.87895993e-05
      -5.87895993e-05 0. 9.13079475e-06 6.14525707e-05 6.14525707e-05
      6.14525707e-05 6.12800341e-06 -2.91127562e-05 -5.23650415e-05
      -6.36060577e-05 -2.15647797e-05 -5.30711950e-05 -8.99716761e-05
      -7.44693389e-05 -8.10485290e-05 -1.90122792e-05 1.14300965e-05
      1.14300965e-05 7.02196921e-05 7.02196921e-05 5.23217786e-05
      5.23217786e-05 -2.09670143e-05 -7.97566099e-05 -7.97566099e-05
      -7.97566099e-05 -3.80258716e-05 -2.09670143e-05 0. 5.23217786e-05
      -6.46781973e-06 -3.00279135e-06 -5.53245700e-05 -7.21741671e-05
      -8.92330208e-05 -4.42705386e-05 -6.12126314e-05 -6.46776607e-05
      -8.55629332e-05 -6.85040723e-05 -6.46781973e-06 -6.46781973e-06
      -6.46781973e-06 5.23217786e-05 5.23217786e-05 5.23217786e-05
      5.23217786e-05 2.39954716e-05 -3.47941277e-05 -7.97566099e-05
      -7.97566099e-05 -2.09670143e-05 -2.09670143e-05 -2.09670143e-05
      -2.09670143e-05 -6.46781973e-06 -3.00279135e-06 -5.53245700e-05
      -5.53245700e-05 -5.53245700e-05 -7.94017833e-05 -9.64606443e-05
      -4.11360706e-05 0. -5.87895993e-05 -5.87895993e-05 -6.46781973e-06
      -6.46781973e-06 5.23217786e-05 5.23217786e-05 5.23217786e-05
      4.02303740e-05 1.58180537e-05 -5.18529851e-05 -3.47941277e-05
      -3.47941277e-05 -2.09670143e-05 -2.09670143e-05 -2.09670143e-05
      -2.09670143e-05 -5.87895993e-05 -5.87895993e-05 -5.53245700e-05
      -5.53245700e-05 -5.53245700e-05 -5.53245700e-05 3.46502816e-06 0.
      0. -5.87895993e-05 -5.87895993e-05 -5.87895993e-05 -5.87895993e-05
      0. 0. 0. 9.82432466e-05</_>
    <_>
      -9.20326147e-06 1.31444324e-06 0. 0. 0. 0. 0. -3.68029068e-05
      -3.54884651e-05 -3.54884651e-05 -6.62828679e-05 -8.16935426e-05
      -7.44429199e-05 -8.16935426e-05 -5.27711163e-05 -6.62828679e-05
      -6.62828679e-05 -6.75973060e-05 -3.07944028e-05 2.17691631e-05
      2.17691631e-05 5.25635660e-05 5.25635660e-05 5.25635660e-05
      5.25635660e-05 0. 0. 0. 0. 0. 0. -3.68029068e-05 -3.68029068e-05
      -4.44604411e-05 -4.31459957e-05 -6.04286506e-05 -5.18724373e-05
      -5.18724373e-05 -5.18724373e-05 -8.16935426e-05 -7.78143294e-05
      -7.78143294e-05 -4.88919068e-05 -3.07944028e-05 -3.07944028e-05
      -3.07944028e-05 0. 0. 0. 0. 0. 0. 0. 0. 0. 0. -3.68029068e-05
      -3.68029068e-05 -4.44604411e-05 6.52994640e-06 -2.42644564e-05
      -5.31868791e-05 -7.07253002e-06 -7.07253002e-06 -4.45511687e-05
      -8.54718601e-05 -8.54718601e-05 -8.54718601e-05 -6.73743561e-05
      -5.97168255e-05 -3.07944028e-05 4.65392477e-05 4.65392477e-05 0.
      0. 0. 0. -2.89224245e-05 0. 0. -2.72735451e-05 -6.40764483e-05
      -1.14017952e-04 -1.05863437e-04 -1.07522443e-04 -6.49289505e-05
      -5.13534578e-05 -5.13534578e-05 3.26037953e-05 1.33078829e-05
      -2.46478521e-06 -5.08360354e-05 -9.16205900e-05 -4.50813423e-05
      -2.55666255e-05 -1.31775778e-05 4.65392477e-05 4.65392477e-05
      -8.23001301e-06 -5.47692616e-05 0. 0. -2.89224245e-05
      -2.89224245e-05 -2.72735451e-05 -2.72735451e-05 -7.65393197e-05
      -1.06103609e-04 -1.08337503e-04 -1.30944201e-04 -3.52755706e-05
      1.25973620e-05 3.98709053e-05 3.98709053e-05 5.27013835e-05
      -4.98646914e-05 2.33853334e-05 2.04045464e-05 -4.38679162e-05
      -5.28992814e-06 2.66138341e-05 1.12847029e-05 -8.23001301e-06
      -8.23001301e-06 -8.23001301e-06 -3.07944028e-05 0. -2.89224245e-05
      -2.89224245e-05 5.44941531e-06 -1.44875294e-05 -1.02047001e-04
      -1.12136346e-04 -1.08247383e-04 -1.02238875e-04 -1.02238875e-04
      -1.31161301e-04 -7.67155070e-05 7.14962007e-05 8.52884550e-05
      7.04622580e-05 4.07923944e-05 -9.60858451e-05 -1.19165961e-04
      -7.12714318e-05 -5.71271230e-05 -1.76869962e-05 -1.76869962e-05
      -8.23001301e-06 -8.23001301e-06 -3.07944028e-05 0. -2.89224245e-05
      -2.89224245e-05 -6.54286414e-05 3.81882137e-06 -1.46101695e-04
      -8.30467343e-06 4.55983682e-05 -3.01605978e-05 -1.12293301e-05
      -4.27588711e-05 -7.82779261e-06 3.90754067e-05 3.05191897e-05
      -1.04015025e-05 -1.26624227e-05 -1.21932680e-04 -1.55466609e-04
      -1.97617865e-05 -1.81027790e-05 -1.76869962e-05 -1.76869962e-05
      -3.72017093e-05 -8.23001301e-06 -4.21579171e-05 0. -2.89224245e-05
      -2.89224245e-05 1.85997505e-05 5.47568052e-05 4.81183160e-05
      1.43593425e-04 7.70074475e-05 1.20494595e-04 3.87271211e-05
      -6.38657684e-06 2.27164634e-07 4.15392715e-05 1.03861115e-04
      6.29404167e-05 6.06795002e-05 2.57325846e-05 -5.16397631e-05
      -7.58507394e-06 -7.58507394e-06 -1.76869962e-05 -1.76869962e-05
      -3.72017093e-05 -5.47692616e-05 -4.21579171e-05 0. -2.89224245e-05
      5.28450473e-05 -2.22164745e-05 4.84357515e-05 7.82129500e-05
      1.05979387e-04 6.33602976e-05 1.59710489e-05 -5.64106849e-05
      4.76465175e-06 5.44023678e-05 1.46730235e-04 1.38174015e-04
      9.72533235e-05 1.17218668e-04 9.86131927e-05 -9.24408141e-06
      -7.58507394e-06 -2.86191007e-05 -1.76869962e-05 -8.23001301e-06
      -5.47692616e-05 -1.13635151e-05 -3.03051766e-05 -1.13635151e-05 0.
      5.28450473e-05 1.89835755e-05 5.43636415e-05 -2.43531267e-05
      -3.22579144e-05 2.04449043e-05 -2.76401188e-05 4.37654999e-05
      5.75452068e-05 1.93170381e-05 1.49946893e-04 1.30565764e-04
      6.23715241e-05 6.01106040e-05 1.00065059e-04 3.23187269e-05
      -3.85593303e-05 1.12847029e-05 6.60539663e-05 0. 0.
      -1.30225226e-05 -4.90105813e-05 -1.30225226e-05 0. -2.89224245e-05
      -5.53556238e-05 1.23632917e-05 -6.56738557e-05 -2.70058740e-06
      -1.06439489e-04 -5.31881815e-05 1.32805744e-05 -6.69243964e-05
      -5.69451049e-06 3.37948914e-05 7.24835854e-06 2.12323266e-05
      5.20556459e-05 2.27636647e-05 3.77443721e-05 -4.18580130e-05
      -4.82409405e-06 4.65392477e-05 0. 0. -1.30225226e-05
      3.86744032e-05 -1.30225226e-05 0. -1.27074032e-04 -1.27074032e-04
      -2.16599568e-04 -2.06639859e-04 -1.80803356e-04 -1.17508273e-04
      -7.77975729e-05 -2.57792344e-05 -9.74093200e-05 -1.05075444e-04
      -3.61794373e-05 1.85898243e-05 -5.96741083e-05 -2.47840285e-06
      -2.47551507e-05 -1.06974723e-04 -7.05495768e-05 -2.43388095e-05 0.
      0. 0. -1.30225226e-05 -6.84734623e-05 -1.30225226e-05
      -1.65900735e-06 -1.27074032e-04 -1.27074032e-04 -1.74751127e-04
      -1.64244178e-04 -2.96587445e-04 -2.62199115e-04 -1.57243761e-04
      -7.16087961e-05 -4.21239602e-05 -9.02560641e-05 -7.25701193e-06
      2.02387037e-05 -1.14443370e-04 -1.16704286e-04 -2.27956596e-04
      -1.49754764e-04 1.61230491e-05 -1.89573875e-05 -7.08780572e-05 0.
      0. -1.30225226e-05 -1.23242717e-04 -1.30225226e-05 -1.65900735e-06
      -1.27074032e-04 -1.27074032e-04 -1.56045731e-04 -1.18222590e-04
      -6.01526335e-05 -7.06703358e-05 4.63740107e-05 4.84954726e-05
      2.30122823e-05 8.62242159e-05 7.47694357e-05 5.70515404e-05
      -4.70690065e-05 -8.77818602e-05 -2.27956596e-04 -1.48710154e-04
      -1.26936720e-04 -1.40575721e-04 -7.91439925e-06 -2.89716991e-05 0.
      -1.30225226e-05 -1.46271821e-04 -1.65900735e-06 -1.65900735e-06
      -2.72735451e-05 -1.27074032e-04 -1.52920868e-04 -7.11533867e-05
      -1.85898243e-05 -2.80468066e-05 5.85507223e-05 1.06993692e-04
      4.25713733e-05 6.72808965e-05 8.52871453e-05 6.75692427e-05
      -2.15645687e-05 -1.05272353e-04 -1.61623248e-04 -2.14899512e-04
      -1.65709178e-04 -1.53166839e-04 -1.55719317e-05 -2.89716991e-05 0.
      -1.30225226e-05 -5.33565180e-05 -1.65900735e-06 0. 0. 0.
      -5.47692616e-05 2.69982120e-05 5.22882328e-05 4.74641383e-05
      1.19488548e-04 1.46897495e-04 5.52016318e-05 1.16009105e-04
      1.57334885e-04 1.20984798e-04 -1.06324642e-05 -6.39602513e-05
      -7.23179764e-05 -2.14291620e-04 -1.96194116e-04 -9.15214478e-05
      -2.65040362e-05 1.04000919e-05 -2.89716991e-05 0. -4.29165193e-05
      0. 0. 0. 0. -5.47692616e-05 2.69982120e-05 1.03220060e-04
      7.59465183e-05 1.31862136e-04 1.59271076e-04 1.49156922e-05
      1.16009105e-04 1.57334885e-04 2.15814343e-05 1.83392349e-05
      -5.30281468e-05 -1.12866714e-04 -2.14291620e-04 -1.02884966e-04
      -3.67521898e-05 -2.65040362e-05 6.29636561e-05 -2.89716991e-05
      -2.89716991e-05 0. 0. 0. 0. 0. -8.04264273e-05 2.36340620e-05
      5.33166603e-05 2.60431170e-05 4.97766923e-05 1.08985012e-04
      1.43258203e-05 -4.47363236e-05 3.80685487e-05 -2.08142465e-05
      -2.40564459e-05 -1.29599808e-04 -1.41789147e-04 -2.14291620e-04
      -4.81157040e-05 -3.67521898e-05 3.51413473e-05 1.05359337e-04
      -2.89716991e-05 -2.89716991e-05 0. 0. 0. -7.08780572e-05
      -7.08780572e-05 -1.51304484e-04 -5.33763750e-06 1.21682506e-05
      -6.20891515e-05 -1.10987676e-05 2.52821555e-05 -1.13880000e-04
      -6.89825538e-05 9.14612519e-06 -7.87083700e-05 -2.20167625e-04
      -2.18008194e-04 -6.83144754e-05 -6.62132079e-05 -4.81157040e-05
      -3.67521898e-05 8.84691326e-05 7.20773778e-06 5.27957745e-05 0. 0.
      0. -7.08780572e-05 -9.81515986e-05 -9.81515986e-05 -9.29857197e-05
      -9.57095835e-05 -9.83569334e-05 -1.87808022e-04 -1.06023239e-04
      -7.72998537e-05 -1.71959036e-04 -1.27061590e-04 -6.70304216e-05
      -1.54354959e-04 -2.69551674e-04 -9.26414214e-05 -2.27887722e-06
      -6.62132079e-05 -3.67521898e-05 7.75370281e-05 9.61266633e-05
      7.20773778e-06 -4.53558278e-05 -7.08780572e-05 -3.04849254e-05
      -3.04849254e-05 -8.52541853e-05 -1.83405791e-04 -1.52920868e-04
      -1.16935815e-04 -7.02283387e-07 -4.18506934e-05 -7.63494318e-05
      -6.77547287e-05 -1.73362379e-04 -1.46088831e-04 -3.60125305e-05
      -5.10549253e-05 -3.70709568e-05 -1.42507284e-04 -1.23801874e-04
      2.95393711e-05 -2.38175271e-05 4.50836196e-05 1.59347197e-04
      1.67004720e-04 9.78248208e-05 3.61794373e-05 1.08894155e-05
      -3.04849254e-05 -8.52541853e-05 -1.12527734e-04 -1.83405791e-04
      -1.52920868e-04 -1.25087012e-04 9.00222403e-06 -1.51548022e-06
      -6.22630323e-05 -1.12726484e-05 -1.19892895e-04 5.75442346e-06
      5.35904690e-07 2.72330781e-05 3.24267348e-05 -3.37752936e-05
      -9.76895026e-05 -2.25403583e-05 1.28552783e-04 1.88318896e-04
      1.95976419e-04 1.43412850e-04 9.78248208e-05 3.61794373e-05
      1.08894155e-05 0. -8.52541853e-05 -1.12527734e-04 -1.12527734e-04
      -8.20428031e-05 -1.00748206e-04 -1.18845710e-04 -5.70517404e-05
      3.78011755e-05 4.49119070e-05 -3.68555666e-05 -3.45946464e-05
      -3.45946464e-05 2.48295728e-05 2.22499293e-05 -1.74896304e-05
      -5.65494374e-05 -5.65494374e-05 1.03536637e-04 1.34331043e-04
      8.17674736e-05 8.17674736e-05 3.61794373e-05 -6.21624486e-06
      2.10572998e-05 -3.33587263e-06 3.90598070e-05 0. -2.72735451e-05
      -2.72735451e-05 -2.72735451e-05 -4.53710491e-05 -4.31101289e-05
      3.51364870e-05 8.61268709e-05 4.35940137e-06 4.35940137e-06
      4.35940137e-06 4.35940137e-06 -1.14132672e-05 -4.88919068e-05
      -4.88919068e-05 0. 0. 8.17674736e-05 8.17674736e-05 8.17674736e-05
      1.07057494e-04 -6.21624486e-06 2.10572998e-05 -3.33587263e-06
      -3.33587263e-06 -3.33587263e-06 6.64687541e-05 2.74089452e-05 0.
      2.74089452e-05 1.15723624e-05 -1.58365838e-05 -3.31192387e-05
      4.35940137e-06 4.35940137e-06 4.35940137e-06 4.35940137e-06
      -1.14132672e-05 -4.88919068e-05 0. 0. 0. 0. 0. 0. -2.72735451e-05
      2.52900209e-05 2.10572998e-05</_>
    <_>
      -1.79259823e-05 -1.79259823e-05 -1.79259823e-05 -1.79259823e-05
      -1.79259823e-05 -1.36995259e-05 -1.36995259e-05 -1.36995259e-05
      -1.36995259e-05 -1.36995259e-05 -1.36995259e-05 -1.36995259e-05
      -1.45592558e-05 8.82293170e-06 8.82293170e-06 8.82293170e-06
      -1.41776109e-05 -1.41776109e-05 -5.58771353e-06 -1.41776109e-05
      -1.41776109e-05 -1.33178819e-05 -1.33178819e-05 -1.36995259e-05
      -5.14581261e-05 -1.45592558e-05 -1.45592558e-05 -1.79259823e-05
      -1.79259823e-05 -1.45592558e-05 -1.45592558e-05 -1.45592558e-05
      -1.36995259e-05 -1.36995259e-05 -2.84519265e-05 -1.38926707e-05
      -2.75654675e-05 -4.18327909e-06 8.62978777e-06 -5.92946799e-06
      -5.92946799e-06 9.20457660e-06 8.97154223e-06 8.97154223e-06
      3.81644497e-07 -1.41776109e-05 -1.41776109e-05 -1.33178819e-05
      -1.36995259e-05 -1.45592558e-05 0. 0. 0. 0. 0. 0. 0.
      -1.47524006e-05 2.29699635e-05 7.26318331e-06 -2.95994505e-05
      2.49950717e-05 4.75175293e-05 2.38101748e-05 2.44690418e-05
      3.08720701e-05 6.87041902e-05 5.28491801e-05 2.94669935e-05
      3.81644497e-07 3.81644497e-07 3.81644497e-07 3.81644497e-07 0.
      -1.45592558e-05 0. 0. 0. 0. 0. 0. -1.47524006e-05 1.43320267e-05
      -3.40868542e-06 1.96274996e-05 -9.82548727e-07 2.46345462e-05
      2.46345462e-05 6.60734077e-05 -8.69905944e-06 -1.26969408e-05
      7.07365325e-06 3.08720701e-05 2.90853495e-05 2.90853495e-05
      2.90853495e-05 0. 0. 0. 0. 0. 0. 0. 0. 0. 0. -1.56483657e-05
      -6.47970519e-05 -3.24548673e-05 -3.42521162e-05 -5.14875537e-05
      -2.81053672e-05 -4.95729637e-06 -1.93280521e-05 -2.43668292e-05
      -6.86325729e-05 -1.02277452e-04 -1.40721186e-05 5.84042846e-06
      2.90853495e-05 2.90853495e-05 0. 0. 0. 0. 0. 0. 0. 0. 0.
      3.68626352e-05 -2.31743652e-05 -1.03107930e-04 2.77012646e-06
      -2.06900540e-06 -1.69745726e-05 6.78925926e-06 4.69737679e-05
      1.80872321e-05 5.05210346e-06 -4.58948307e-06 -1.02277452e-04
      -1.04894003e-04 5.84042846e-06 1.73150670e-06 2.90853495e-05 0. 0.
      0. 0. 0. 0. 0. 0. 3.68626352e-05 3.68626352e-05 2.76193605e-05
      -4.30102009e-05 -3.69838526e-05 1.72720938e-05 3.35560944e-05
      5.55631050e-05 2.58549535e-05 7.74225991e-05 9.46525597e-06
      -1.85438093e-05 -5.94166013e-05 -1.03026556e-04 -5.42556336e-05
      -1.71801676e-05 2.90853495e-05 0. 0. 0. 0. 0. 0. 0. 5.93727918e-06
      3.68626352e-05 3.68626352e-05 4.56656926e-06 -4.34579379e-05
      -1.11081272e-05 1.57337909e-05 -1.75294426e-05 3.59316664e-06
      2.19239973e-05 -3.55474003e-05 7.31599139e-05 1.83188240e-05
      1.77138954e-05 -8.82741515e-05 -8.61963053e-05 -4.09742133e-05
      1.45260938e-05 -1.45592558e-05 -1.45592558e-05 0. -2.82071996e-05
      -1.38742498e-05 0. 5.93727918e-06 5.93727918e-06 -2.40908703e-05
      -3.25844085e-05 -4.71436615e-05 -5.14515850e-05 -4.28616877e-05
      -3.86571919e-05 -3.82755461e-05 -2.68665608e-05 4.75068191e-06
      -1.49461885e-05 7.68951850e-06 -5.46346882e-06 9.11693223e-06
      -5.15149441e-05 -8.43553789e-05 -1.87042951e-05 5.28282135e-06
      -1.45592558e-05 -1.45592558e-05 -1.45592558e-05 -2.82071996e-05
      -1.38742498e-05 0. 5.93727918e-06 5.93727918e-06 -2.66471270e-05
      -3.25844085e-05 -3.25844085e-05 -6.19994898e-05 -6.14059391e-05
      -6.64447216e-05 -5.15038191e-05 -1.81923060e-05 -8.63878995e-06
      -6.27072368e-05 -6.83657572e-06 -1.49950838e-05 1.43377183e-05
      -8.40993525e-05 -9.33864139e-05 -2.73012574e-05 1.44226678e-05
      -1.45592558e-05 -1.45592558e-05 -1.45592558e-05 -4.27664563e-05
      -1.38742498e-05 3.50226292e-05 5.93727918e-06 5.93727918e-06
      5.93727918e-06 -8.49353637e-06 -3.25844085e-05 -9.81305348e-05
      -9.29073649e-05 -1.01497259e-04 -1.22261394e-04 -1.03448590e-04
      -8.59375505e-05 -2.65398085e-05 -5.89274641e-05 -3.89821980e-05
      -1.91486902e-06 -1.39656379e-06 -6.44139946e-05 -2.74050126e-05
      -2.31562190e-05 -1.46626817e-05 -1.45592558e-05 -1.45592558e-05
      -4.27664563e-05 3.51804010e-06 3.50226292e-05 2.33295686e-05
      2.33295686e-05 2.33295686e-05 2.33295686e-05 1.73922908e-05
      -4.81538373e-05 -8.00628986e-05 -1.08270098e-04 -1.43333062e-04
      -1.38621515e-04 -8.06824828e-05 -5.76500570e-05 -5.82112116e-05
      5.56422083e-06 1.67658163e-05 -1.68226597e-05 -2.52548107e-05
      -2.74050126e-05 -4.72470892e-05 -2.31562190e-05 -1.45592558e-05
      -1.45592558e-05 -4.27664563e-05 2.34085292e-05 2.90853495e-05 0.
      1.73922908e-05 1.73922908e-05 2.33295686e-05 1.73922908e-05
      2.63989000e-06 -1.42369448e-04 -1.85135912e-04 -2.04325450e-04
      -1.86698890e-04 -7.22093100e-05 -7.77649475e-05 -3.74921474e-05
      6.49618414e-07 1.46156140e-07 -4.44931866e-05 -8.45151808e-05
      -6.02822183e-05 -4.72470892e-05 -4.72470892e-05 -2.30527930e-05 0.
      -2.82071996e-05 6.01112879e-06 2.90853495e-05 0. 0. 0. 0. 0.
      8.14901705e-06 -7.34565983e-05 -1.11528905e-04 -1.14711176e-04
      -3.39988469e-06 -2.37079203e-05 1.71960328e-05 -6.74768380e-05
      -8.60719319e-06 -1.54306006e-04 -1.09031484e-04 -1.49390326e-04
      -1.07723979e-04 -4.72470892e-05 -4.71436615e-05 -2.30527930e-05 0.
      -2.82071996e-05 -1.34926058e-05 3.68626352e-05 3.68626352e-05
      3.68626352e-05 0. 0. 0. -9.24327287e-06 -4.60539704e-05
      -6.74712282e-05 -4.21085279e-05 2.61748537e-05 4.74819972e-05
      3.37557117e-06 -1.72044838e-05 -1.30597269e-04 -1.69872976e-04
      -2.59203138e-04 -1.77597525e-04 -1.25394654e-04 -5.35635299e-05
      -4.71436615e-05 -1.45592558e-05 -1.45592558e-05 -4.27664563e-05
      -8.36512299e-06 5.93727918e-06 4.27999148e-05 3.68626352e-05
      3.68626352e-05 0. 0. -6.53375423e-07 2.06379900e-05 4.75057132e-05
      6.65514017e-05 1.42500037e-04 1.26247454e-04 1.23605685e-04
      -7.57940725e-05 -1.13552669e-04 -1.31326611e-04 -2.44643888e-04
      -2.59203138e-04 -1.68354265e-04 -7.46009318e-05 -1.46626817e-05
      -1.45592558e-05 -1.45592558e-05 -4.27664563e-05 -8.36512299e-06
      5.93727918e-06 4.27999148e-05 4.27999148e-05 4.27999148e-05
      -3.18213206e-05 1.45271770e-05 2.48424840e-05 8.53355159e-05
      1.08482505e-04 1.11578884e-04 1.51846747e-04 1.25182327e-04
      1.30144326e-04 -3.43857209e-05 -1.13830887e-04 -1.68505387e-04
      -2.29458557e-04 -2.29458557e-04 -1.77597525e-04 -7.46009318e-05
      -2.31562190e-05 -1.46626817e-05 -1.45592558e-05 -1.45592558e-05
      -2.82071996e-05 5.93727918e-06 4.27999148e-05 2.97647857e-05
      -7.99381360e-06 -5.43856768e-05 -6.89449298e-05 1.66545760e-05
      2.06136847e-05 7.88103061e-05 9.93068388e-05 1.44166726e-04
      1.02668477e-04 9.00584782e-05 5.55788611e-05 -8.29933106e-06
      -1.17762793e-04 -2.03749965e-04 -2.03749965e-04 -1.26803803e-04
      -7.12342080e-05 -4.72470892e-05 -4.72470892e-05 -2.30527930e-05
      -1.45592558e-05 0. 5.93727918e-06 4.27999148e-05 2.97647857e-05
      -1.41563160e-05 -5.43856768e-05 -8.97090576e-05 -1.29634436e-05
      3.67034554e-05 6.92810790e-05 7.52183551e-05 1.10113157e-04
      1.15763462e-04 7.71661580e-05 1.12858925e-05 -5.48962089e-05
      -1.05672436e-04 -1.53773261e-04 -1.90714825e-04 -1.12051406e-04
      -7.12342080e-05 -4.72470892e-05 -4.72470892e-05 -4.71436615e-05
      -1.45592558e-05 0. 0. 4.27999148e-05 2.97647857e-05 2.36022825e-05
      -5.43856768e-05 -1.56591253e-04 -7.39083625e-05 -3.22420819e-05
      4.20970828e-05 4.85169512e-05 1.21649566e-04 1.45031750e-04
      6.63570900e-05 6.62536622e-05 -2.85147962e-05 -1.89542534e-05
      -3.70315502e-05 -1.14072980e-04 -6.84168190e-05 -4.72470892e-05
      -4.72470892e-05 -3.25844085e-05 -3.25844085e-05 8.58989733e-06
      5.93727918e-06 0. 3.68626352e-05 3.24174034e-05 3.24174034e-05
      -2.26070515e-05 -4.96181456e-05 -6.70190639e-05 -5.93622572e-05
      -9.34280906e-05 -7.82427669e-05 -2.46897343e-05 -3.32796335e-05
      -2.02445044e-05 -3.40752922e-05 -3.40752922e-05 -1.79648559e-05
      -4.61111777e-05 -5.38575587e-05 -7.85657103e-05 -2.39945093e-05
      -2.39945093e-05 -2.39945093e-05 9.63606865e-08 8.58989733e-06
      4.27999148e-05 5.93727918e-06 4.27999148e-05 5.13898121e-05
      4.54525325e-05 -1.55092021e-05 -2.08964411e-05 -5.62220011e-05
      -8.65604597e-05 -6.91681707e-05 -6.91681707e-05 -8.92334810e-06
      -1.83729753e-05 -9.78307799e-06 -3.31652664e-05 1.09810499e-05
      -3.92729089e-05 1.34087304e-05 -4.64901968e-05 -2.39945093e-05
      -2.39945093e-05 -2.39945093e-05 9.63606865e-08 8.58989733e-06
      8.58989733e-06 5.93727918e-06 5.93727918e-06 5.13898121e-05
      5.13898121e-05 4.54525325e-05 -6.53375423e-07 6.14363353e-06
      4.66163146e-05 -2.13974272e-05 -4.17054616e-05 6.59412945e-06
      5.88544708e-06 5.02571766e-06 1.98815451e-05 2.17170327e-05
      6.53170355e-06 1.94577860e-05 4.95262721e-05 1.26636387e-05
      9.63606865e-08 9.63606865e-08 8.58989733e-06 8.58989733e-06
      8.58989733e-06 8.58989733e-06 -6.23695041e-06 -6.23695041e-06
      2.97125061e-05 6.65751431e-05 2.04085009e-05 2.04085009e-05
      6.14363353e-06 -2.06883869e-05 2.16381159e-05 3.10770929e-06
      1.27133653e-05 6.95914641e-05 5.01218674e-05 5.51606427e-05
      9.05681300e-05 7.03440237e-05 2.94835081e-05 1.77904494e-05
      4.59976472e-05 2.26154607e-05 2.26154607e-05 2.26154607e-05
      2.26154607e-05 5.22317032e-06 2.68419171e-05 -1.55009729e-05
      -3.96318283e-05 -1.51424911e-05 -1.51424911e-05 3.01110003e-06
      -1.21742296e-05 1.45271770e-05 1.45271770e-05 1.54053268e-05
      1.54053268e-05 1.62650558e-05 5.48325734e-05 9.08354777e-05
      9.58742530e-05 3.60468621e-05 2.08615329e-05 1.99833812e-05
      3.14383942e-05 8.05620493e-06 8.05620493e-06 8.05620493e-06
      8.05620493e-06 8.05620493e-06 8.91593481e-06 2.59949547e-06</_>
    <_>
      -2.11087372e-05 -2.11087372e-05 -3.00850370e-05 -5.37501837e-05 0.
      0. 1.29221062e-05 1.29221062e-05 0. 1.09270450e-05 0. 0.
      1.29221062e-05 2.24326814e-05 9.51057518e-06 3.31757219e-05
      1.14744125e-05 1.14744125e-05 1.14744125e-05 1.14744125e-05
      1.14744125e-05 1.14744125e-05 1.14744125e-05 0. 0. 2.36651467e-05
      2.36651467e-05 -1.35997270e-05 -3.72648756e-05 0. 0.
      1.29221062e-05 0. 0. 0. 0. 0. 2.14919910e-05 2.14919910e-05
      2.14919910e-05 8.56988572e-06 2.00442992e-05 1.14744125e-05
      1.14744125e-05 1.14744125e-05 1.14744125e-05 1.14744125e-05
      1.14744125e-05 0. 0. 2.36651467e-05 2.36651467e-05 -8.97629980e-06
      0. 0. 0. 0. 0. 3.78595832e-05 4.97115507e-05 1.18519674e-05
      2.48410538e-06 1.10539913e-05 4.94653068e-05 4.00418048e-06
      4.00418048e-06 1.19243487e-05 1.28650390e-05 3.79148041e-05
      7.04666627e-06 7.04666627e-06 7.04666627e-06 7.04666627e-06 0. 0.
      2.36651467e-05 0. 0. 0. 0. 0. 0. 3.78595832e-05 4.97115507e-05
      4.97115507e-05 1.18519674e-05 -3.37198944e-05 -4.29489010e-05
      7.59282898e-07 -4.99987145e-05 -4.64933437e-05 -9.15408236e-06
      4.68248714e-07 2.55180166e-05 2.64403934e-05 2.64403934e-05 0. 0.
      0. 0. 2.36651467e-05 0. 0. 0. 0. 0. 3.78595832e-05 3.78595832e-05
      4.97115507e-05 6.70624431e-05 5.87410286e-05 1.77357651e-05
      -3.18023012e-06 -2.34931595e-05 -3.24694593e-05 -5.72435347e-05
      -3.30315161e-05 -3.88910776e-05 2.34235649e-05 2.64403934e-05
      -5.73069483e-05 0. 0. 0. 0. 0. 0. 0. 0. 0. 3.78595832e-05
      3.78595832e-05 3.78595832e-05 6.70624431e-05 6.81088859e-05
      -1.63171546e-06 3.04074183e-05 -1.30241151e-05 -4.63885590e-06
      -4.63885590e-06 -8.05038690e-06 -4.20078140e-05 2.92864502e-06
      -6.03237786e-05 -5.73069483e-05 -5.73069483e-05 -8.37473417e-05 0.
      0. 0. 0. 0. 0. 0. 3.78595832e-05 3.78595832e-05 3.78595832e-05
      5.52104757e-05 5.52104757e-05 8.44142323e-06 1.63419954e-05
      -5.03940973e-05 2.45252177e-05 3.63771833e-05 3.63771833e-05
      1.90262908e-05 4.71614985e-05 -2.10760609e-05 -6.03237786e-05
      -5.73069483e-05 -5.73069483e-05 0. 0. 0. 0. 0. 0. 0.
      1.73508943e-05 3.78595832e-05 3.78595832e-05 3.78595832e-05
      3.78595832e-05 -2.95239151e-05 -3.63324616e-05 -7.72150888e-05
      -5.17482476e-05 -2.53078560e-05 -2.98627019e-05 6.33097225e-05
      5.68858741e-05 1.20538192e-04 -2.10760609e-05 -5.63170488e-06
      -3.99560558e-05 -5.73069483e-05 0. 0. 0. 0. 2.64403934e-05 0.
      1.73508943e-05 1.73508943e-05 0. 0. 0. -2.01560542e-05
      -3.04646055e-05 -8.88382201e-05 -1.04345869e-04 -5.17482476e-05
      -1.75028235e-05 -4.74327571e-05 8.61765056e-06 1.95446955e-05
      3.67908542e-05 5.33707753e-05 -2.29825982e-05 -5.73069483e-05
      -5.73069483e-05 0. 0. 0. 0. 9.89849650e-06 0. 1.73508943e-05
      1.73508943e-05 1.73508943e-05 0. -2.01560542e-05 -3.04646055e-05
